// This file is computer-generated by onnx2c 
// Command Line: /home/test01/heyi/onnx2c/build/onnx2c /home/test01/heyi/tiny_nafnet.onnx

// onnx2c
// Git Branch: master
// Git Commit: e6308a7

// ONNX Model
// Produced By: pytorch, version 2.10.0
// ONNX IR version: 17

#include <float.h>
#include <math.h>
#include <stdbool.h>
#include <stdint.h>
#include <string.h>
#include <stdlib.h>

#define MAX(X,Y) ( X > Y ? X : Y)
#define MIN(X,Y) ( X < Y ? X : Y)
#define CLIP(X,L) ( MAX(MIN(X,L), -L) )

#if __STDC_VERSION__ < 199901L
#define FUNC_PREFIX
#else
#define FUNC_PREFIX static inline
#endif

static const float tensor_intro_weight[8][3][3][3] = 
{
  {
    {
      {0.06311976909637451172f, 0.04867590591311454773f, 0.16840706765651702881f},
      {0.12482222914695739746f, 0.00228982488624751568f, 0.14239357411861419678f},
      {-0.18042890727519989014f, -0.19083103537559509277f, -0.15790770947933197021f}
    },
    {
      {-0.07952806353569030762f, -0.02505120262503623962f, -0.06472188979387283325f},
      {0.08997461199760437012f, -0.01716161891818046570f, -0.02086624503135681152f},
      {-0.13158330321311950684f, 0.02662271820008754730f, 0.08372766524553298950f}
    },
    {
      {-0.16919808089733123779f, -0.09093121439218521118f, -0.12204877287149429321f},
      {0.05065954849123954773f, 0.17147180438041687012f, 0.11526725441217422485f},
      {-0.09219012409448623657f, 0.04410412535071372986f, -0.18933653831481933594f}
    }
  },
  {
    {
      {-0.08812419325113296509f, 0.10960697382688522339f, 0.05535567551851272583f},
      {-0.11389326304197311401f, -0.03584403172135353088f, 0.16805170476436614990f},
      {0.15247191488742828369f, -0.10995394736528396606f, -0.03125183284282684326f}
    },
    {
      {0.14517246186733245850f, 0.17251619696617126465f, 0.03859819844365119934f},
      {0.06215691938996315002f, 0.08648137003183364868f, -0.08064019680023193359f},
      {-0.07752473652362823486f, -0.07360693812370300293f, 0.02092990837991237640f}
    },
    {
      {-0.04854233935475349426f, -0.16531787812709808350f, -0.04908590018749237061f},
      {-0.12622402608394622803f, 0.17628695070743560791f, 0.15998229384422302246f},
      {-0.00376805942505598068f, 0.15585926175117492676f, 0.14902867376804351807f}
    }
  },
  {
    {
      {-0.05936999246478080750f, -0.13071119785308837891f, -0.06761267036199569702f},
      {0.17572282254695892334f, -0.15256558358669281006f, 0.17019398510456085205f},
      {-0.02805417589843273163f, 0.14936150610446929932f, -0.15901827812194824219f}
    },
    {
      {-0.09352082014083862305f, -0.03750701621174812317f, 0.13988465070724487305f},
      {0.14329130947589874268f, -0.13463942706584930420f, -0.04517303034663200378f},
      {-0.00669777812436223030f, -0.07919190078973770142f, -0.03722687438130378723f}
    },
    {
      {0.12957695126533508301f, -0.07530697435140609741f, -0.00367642962373793125f},
      {0.12357823550701141357f, -0.18601009249687194824f, 0.05591744929552078247f},
      {0.10202295333147048950f, -0.01337571162730455399f, -0.11121829599142074585f}
    }
  },
  {
    {
      {-0.08532443642616271973f, 0.16382755339145660400f, -0.09405116736888885498f},
      {0.14075066149234771729f, -0.05183029547333717346f, 0.14355534315109252930f},
      {-0.04742553085088729858f, 0.15682527422904968262f, 0.00140706880483776331f}
    },
    {
      {0.08150026202201843262f, -0.07710038125514984131f, -0.11887559294700622559f},
      {0.16833613812923431396f, 0.01919399015605449677f, -0.00909857265651226044f},
      {0.02400849573314189911f, 0.04042530804872512817f, -0.03015365079045295715f}
    },
    {
      {-0.16700801253318786621f, 0.03757467120885848999f, -0.16281165182590484619f},
      {-0.06915783137083053589f, 0.10168020427227020264f, -0.18835002183914184570f},
      {-0.18745934963226318359f, 0.05516220629215240479f, -0.08137197047472000122f}
    }
  },
  {
    {
      {-0.11505375802516937256f, -0.14802280068397521973f, 0.12861824035644531250f},
      {0.03611591458320617676f, -0.17347015440464019775f, 0.02422497607767581940f},
      {-0.01414800249040126801f, 0.17617675662040710449f, 0.19028958678245544434f}
    },
    {
      {0.02127603255212306976f, 0.08215116709470748901f, -0.02525412291288375854f},
      {-0.06222413852810859680f, -0.02388653717935085297f, -0.15229287743568420410f},
      {0.09649504721164703369f, 0.14347842335700988770f, -0.18733130395412445068f}
    },
    {
      {-0.00774443056434392929f, -0.14924377202987670898f, 0.03514370694756507874f},
      {-0.16674892604351043701f, -0.11356653273105621338f, 0.17576847970485687256f},
      {0.09433685988187789917f, 0.02123831585049629211f, -0.15365420281887054443f}
    }
  },
  {
    {
      {0.09739372879266738892f, 0.13119331002235412598f, -0.12519721686840057373f},
      {-0.16511078178882598877f, 0.12233682721853256226f, -0.14040429890155792236f},
      {0.06587556004524230957f, -0.04535011947154998779f, -0.08840270340442657471f}
    },
    {
      {0.04489096254110336304f, 0.11919595301151275635f, 0.04917211458086967468f},
      {0.06226043403148651123f, 0.10911297053098678589f, -0.05723669752478599548f},
      {-0.10861817747354507446f, 0.14722514152526855469f, 0.14270463585853576660f}
    },
    {
      {-0.09937351197004318237f, 0.12608177959918975830f, -0.14421978592872619629f},
      {0.16210331022739410400f, 0.14665758609771728516f, 0.09631073474884033203f},
      {0.04297323152422904968f, 0.13832320272922515869f, -0.00989164877682924271f}
    }
  },
  {
    {
      {-0.11147480458021163940f, 0.00692302081733942032f, -0.07656054198741912842f},
      {-0.09711693227291107178f, -0.16931954026222229004f, 0.04118493571877479553f},
      {-0.08195231109857559204f, -0.03419490158557891846f, -0.10646793246269226074f}
    },
    {
      {-0.03084013983607292175f, -0.17344520986080169678f, -0.12300569564104080200f},
      {-0.13122335076332092285f, -0.12321694195270538330f, 0.06622911989688873291f},
      {-0.01552676130086183548f, 0.09840027242898941040f, -0.13057307898998260498f}
    },
    {
      {-0.14804771542549133301f, -0.11733527481555938721f, -0.00107764697168022394f},
      {-0.06898932158946990967f, -0.12800660729408264160f, 0.07595808804035186768f},
      {-0.00807217787951231003f, -0.14673420786857604980f, -0.09765446186065673828f}
    }
  },
  {
    {
      {-0.04037761315703392029f, -0.04539100080728530884f, -0.10289260745048522949f},
      {-0.02402441762387752533f, -0.06814001500606536865f, 0.17750623822212219238f},
      {-0.10394031554460525513f, -0.12932585179805755615f, 0.14281044900417327881f}
    },
    {
      {0.13292422890663146973f, 0.09279374778270721436f, 0.14033068716526031494f},
      {0.11208462715148925781f, 0.06075271964073181152f, -0.16814975440502166748f},
      {-0.10729028284549713135f, 0.11738081276416778564f, -0.14835742115974426270f}
    },
    {
      {-0.01967409439384937286f, -0.02910264022648334503f, -0.01335315965116024017f},
      {-0.14378413558006286621f, 0.09912259876728057861f, -0.05109881609678268433f},
      {-0.16641682386398315430f, 0.04405789822340011597f, -0.15913106501102447510f}
    }
  }
};
static const float tensor_intro_bias[8] = 
{-0.09443124383687973022f, -0.18297940492630004883f, -0.01755204424262046814f, 0.05219938233494758606f, 0.11730311065912246704f, -0.10509943217039108276f, 0.17566274106502532959f, -0.15272122621536254883f};
static const float tensor_encoder_conv1_weight[16][8][1][1] = 
{
  {
    {
      {-0.03179912269115447998f}
    },
    {
      {0.21784487366676330566f}
    },
    {
      {-0.23040045797824859619f}
    },
    {
      {0.28056630492210388184f}
    },
    {
      {-0.04850221425294876099f}
    },
    {
      {-0.31500744819641113281f}
    },
    {
      {0.21162277460098266602f}
    },
    {
      {0.19123002886772155762f}
    }
  },
  {
    {
      {-0.34835091233253479004f}
    },
    {
      {-0.02596802078187465668f}
    },
    {
      {0.21812233328819274902f}
    },
    {
      {-0.03209701552987098694f}
    },
    {
      {0.05989543348550796509f}
    },
    {
      {-0.33833622932434082031f}
    },
    {
      {0.14738073945045471191f}
    },
    {
      {-0.13472029566764831543f}
    }
  },
  {
    {
      {-0.08753284811973571777f}
    },
    {
      {0.34620374441146850586f}
    },
    {
      {-0.11726453900337219238f}
    },
    {
      {0.23019811511039733887f}
    },
    {
      {-0.21845512092113494873f}
    },
    {
      {0.28219768404960632324f}
    },
    {
      {-0.14057157933712005615f}
    },
    {
      {-0.11387483775615692139f}
    }
  },
  {
    {
      {0.27957946062088012695f}
    },
    {
      {0.19948920607566833496f}
    },
    {
      {0.26251146197319030762f}
    },
    {
      {-0.02894194610416889191f}
    },
    {
      {-0.17536190152168273926f}
    },
    {
      {0.18003569543361663818f}
    },
    {
      {-0.10354810208082199097f}
    },
    {
      {-0.18816477060317993164f}
    }
  },
  {
    {
      {-0.33209249377250671387f}
    },
    {
      {-0.06337372958660125732f}
    },
    {
      {-0.19511225819587707520f}
    },
    {
      {-0.03735807910561561584f}
    },
    {
      {-0.05148330330848693848f}
    },
    {
      {0.09225688129663467407f}
    },
    {
      {-0.30605721473693847656f}
    },
    {
      {-0.07425987720489501953f}
    }
  },
  {
    {
      {0.14019428193569183350f}
    },
    {
      {0.17719575762748718262f}
    },
    {
      {0.06991576403379440308f}
    },
    {
      {-0.34415164589881896973f}
    },
    {
      {0.25302711129188537598f}
    },
    {
      {-0.28516843914985656738f}
    },
    {
      {-0.21078169345855712891f}
    },
    {
      {0.17649894952774047852f}
    }
  },
  {
    {
      {-0.22239631414413452148f}
    },
    {
      {-0.09391599148511886597f}
    },
    {
      {0.27675706148147583008f}
    },
    {
      {-0.08245895802974700928f}
    },
    {
      {0.23462703824043273926f}
    },
    {
      {-0.16713897883892059326f}
    },
    {
      {-0.28295251727104187012f}
    },
    {
      {0.29532974958419799805f}
    }
  },
  {
    {
      {-0.01250471640378236771f}
    },
    {
      {-0.15253037214279174805f}
    },
    {
      {-0.33801725506782531738f}
    },
    {
      {-0.33648985624313354492f}
    },
    {
      {-0.09523345530033111572f}
    },
    {
      {-0.26481479406356811523f}
    },
    {
      {-0.01337521802634000778f}
    },
    {
      {-0.27111515402793884277f}
    }
  },
  {
    {
      {0.14646400511264801025f}
    },
    {
      {-0.17870128154754638672f}
    },
    {
      {0.00896990299224853516f}
    },
    {
      {0.01303644105792045593f}
    },
    {
      {0.15409713983535766602f}
    },
    {
      {-0.05511438101530075073f}
    },
    {
      {-0.25041928887367248535f}
    },
    {
      {-0.30300304293632507324f}
    }
  },
  {
    {
      {0.14498704671859741211f}
    },
    {
      {-0.13284778594970703125f}
    },
    {
      {0.11638641357421875000f}
    },
    {
      {0.15544503927230834961f}
    },
    {
      {-0.16012296080589294434f}
    },
    {
      {0.00180915347300469875f}
    },
    {
      {-0.09637656807899475098f}
    },
    {
      {0.02921821735799312592f}
    }
  },
  {
    {
      {-0.27523151040077209473f}
    },
    {
      {0.35064920783042907715f}
    },
    {
      {0.04074618220329284668f}
    },
    {
      {-0.06169615685939788818f}
    },
    {
      {-0.09007877111434936523f}
    },
    {
      {-0.23030850291252136230f}
    },
    {
      {0.00260197790339589119f}
    },
    {
      {0.34196767210960388184f}
    }
  },
  {
    {
      {-0.01968641392886638641f}
    },
    {
      {-0.34517672657966613770f}
    },
    {
      {0.05378228425979614258f}
    },
    {
      {0.20034436881542205811f}
    },
    {
      {-0.23921607434749603271f}
    },
    {
      {0.26768872141838073730f}
    },
    {
      {0.19517396390438079834f}
    },
    {
      {-0.17730441689491271973f}
    }
  },
  {
    {
      {0.17049095034599304199f}
    },
    {
      {-0.12841179966926574707f}
    },
    {
      {-0.02306208014488220215f}
    },
    {
      {0.25476694107055664062f}
    },
    {
      {-0.09484355896711349487f}
    },
    {
      {-0.33012175559997558594f}
    },
    {
      {-0.08218007534742355347f}
    },
    {
      {-0.18825799226760864258f}
    }
  },
  {
    {
      {0.11842240393161773682f}
    },
    {
      {-0.23163916170597076416f}
    },
    {
      {0.29574385285377502441f}
    },
    {
      {-0.12927399575710296631f}
    },
    {
      {-0.23732422292232513428f}
    },
    {
      {0.10010154545307159424f}
    },
    {
      {-0.04346714168787002563f}
    },
    {
      {-0.03582709655165672302f}
    }
  },
  {
    {
      {-0.32618507742881774902f}
    },
    {
      {-0.25999775528907775879f}
    },
    {
      {-0.32748487591743469238f}
    },
    {
      {0.15388964116573333740f}
    },
    {
      {-0.35219502449035644531f}
    },
    {
      {0.29054430127143859863f}
    },
    {
      {0.16769316792488098145f}
    },
    {
      {-0.19703748822212219238f}
    }
  },
  {
    {
      {0.23012866079807281494f}
    },
    {
      {-0.06365459412336349487f}
    },
    {
      {0.07086090743541717529f}
    },
    {
      {-0.07680689543485641479f}
    },
    {
      {0.28098705410957336426f}
    },
    {
      {0.15054048597812652588f}
    },
    {
      {0.29946327209472656250f}
    },
    {
      {0.05955417081713676453f}
    }
  }
};
static const float tensor_encoder_conv1_bias[16] = 
{0.21578967571258544922f, -0.22203616797924041748f, 0.02180429175496101379f, -0.01670047827064990997f, -0.16259671747684478760f, 0.04102906957268714905f, -0.20324288308620452881f, 0.05186393111944198608f, 0.30178448557853698730f, -0.30534446239471435547f, 0.27808731794357299805f, 0.22634121775627136230f, -0.08601008355617523193f, -0.26684707403182983398f, 0.26942852139472961426f, 0.33367925882339477539f};
static const float tensor_encoder_dw_conv_weight[8][1][3][3] = 
{
  {
    {
      {-0.20317217707633972168f, -0.14146158099174499512f, -0.02275947853922843933f},
      {0.08953917026519775391f, 0.08508615195751190186f, -0.00744839524850249290f},
      {-0.00220827269367873669f, -0.20310096442699432373f, -0.00742344092577695847f}
    }
  },
  {
    {
      {0.28963288664817810059f, -0.03161990642547607422f, 0.28925368189811706543f},
      {0.06089659780263900757f, 0.23088423907756805420f, -0.31547611951828002930f},
      {-0.24932420253753662109f, -0.09636799991130828857f, 0.27241548895835876465f}
    }
  },
  {
    {
      {-0.31564033031463623047f, -0.00302143907174468040f, 0.12349840253591537476f},
      {-0.20467793941497802734f, 0.06846030801534652710f, 0.21361207962036132812f},
      {-0.30036589503288269043f, -0.31348127126693725586f, -0.17443995177745819092f}
    }
  },
  {
    {
      {0.33157992362976074219f, 0.10133135318756103516f, 0.00656223297119140625f},
      {-0.00002519289773772471f, -0.02942280098795890808f, 0.16229629516601562500f},
      {0.00643901061266660690f, -0.15577921271324157715f, 0.08353754132986068726f}
    }
  },
  {
    {
      {0.29050844907760620117f, 0.19982771575450897217f, 0.02964659593999385834f},
      {-0.16734966635704040527f, -0.20896677672863006592f, -0.06041932106018066406f},
      {-0.21085827052593231201f, 0.29892516136169433594f, -0.23844516277313232422f}
    }
  },
  {
    {
      {0.00538126658648252487f, -0.01750226877629756927f, -0.32067072391510009766f},
      {0.10316392034292221069f, -0.02698222920298576355f, -0.15491203963756561279f},
      {0.23292216658592224121f, -0.07893221080303192139f, 0.20417568087577819824f}
    }
  },
  {
    {
      {0.04077617451548576355f, -0.22112989425659179688f, 0.04565171524882316589f},
      {-0.05821868032217025757f, -0.08638799190521240234f, -0.07729574292898178101f},
      {0.16422574222087860107f, -0.32953983545303344727f, -0.26560053229331970215f}
    }
  },
  {
    {
      {0.26096397638320922852f, 0.02749621868133544922f, -0.27960819005966186523f},
      {-0.09763364493846893311f, -0.21833193302154541016f, -0.10904876887798309326f},
      {0.16449376940727233887f, 0.03296891972422599792f, 0.26419097185134887695f}
    }
  }
};
static const float tensor_encoder_dw_conv_bias[8] = 
{-0.06531894207000732422f, 0.07536303997039794922f, -0.02272303961217403412f, -0.11244623363018035889f, -0.20809340476989746094f, 0.24535036087036132812f, 0.05213372036814689636f, -0.14966015517711639404f};
static const float tensor_encoder_ca_fc_weight[8][8][1][1] = 
{
  {
    {
      {-0.16321717202663421631f}
    },
    {
      {0.03229245170950889587f}
    },
    {
      {0.27247199416160583496f}
    },
    {
      {-0.33972823619842529297f}
    },
    {
      {0.00680292258039116859f}
    },
    {
      {-0.22962024807929992676f}
    },
    {
      {-0.04373333975672721863f}
    },
    {
      {0.01540391426533460617f}
    }
  },
  {
    {
      {0.10953118652105331421f}
    },
    {
      {0.22689031064510345459f}
    },
    {
      {0.07902622222900390625f}
    },
    {
      {0.14067876338958740234f}
    },
    {
      {-0.16236516833305358887f}
    },
    {
      {-0.24987833201885223389f}
    },
    {
      {-0.09461760520935058594f}
    },
    {
      {-0.25853195786476135254f}
    }
  },
  {
    {
      {0.18046845495700836182f}
    },
    {
      {-0.03027682006359100342f}
    },
    {
      {0.27727618813514709473f}
    },
    {
      {0.13729369640350341797f}
    },
    {
      {0.08740346133708953857f}
    },
    {
      {0.00433539319783449173f}
    },
    {
      {-0.25947141647338867188f}
    },
    {
      {-0.20521742105484008789f}
    }
  },
  {
    {
      {0.28164404630661010742f}
    },
    {
      {0.24681037664413452148f}
    },
    {
      {-0.09498103708028793335f}
    },
    {
      {-0.21737194061279296875f}
    },
    {
      {-0.04819964244961738586f}
    },
    {
      {0.30996677279472351074f}
    },
    {
      {-0.03551373630762100220f}
    },
    {
      {0.11591449379920959473f}
    }
  },
  {
    {
      {-0.01652152277529239655f}
    },
    {
      {0.15388590097427368164f}
    },
    {
      {0.01934801600873470306f}
    },
    {
      {-0.13625983893871307373f}
    },
    {
      {-0.16332240402698516846f}
    },
    {
      {-0.16055133938789367676f}
    },
    {
      {-0.27347046136856079102f}
    },
    {
      {-0.04036016017198562622f}
    }
  },
  {
    {
      {-0.06263544410467147827f}
    },
    {
      {-0.15536883473396301270f}
    },
    {
      {-0.07807025313377380371f}
    },
    {
      {-0.06604216992855072021f}
    },
    {
      {-0.24826504290103912354f}
    },
    {
      {-0.15529009699821472168f}
    },
    {
      {-0.16602276265621185303f}
    },
    {
      {0.11216612160205841064f}
    }
  },
  {
    {
      {0.34735181927680969238f}
    },
    {
      {0.11325410008430480957f}
    },
    {
      {0.17142425477504730225f}
    },
    {
      {0.22570261359214782715f}
    },
    {
      {-0.28979262709617614746f}
    },
    {
      {-0.21727252006530761719f}
    },
    {
      {-0.33383312821388244629f}
    },
    {
      {0.29811146855354309082f}
    }
  },
  {
    {
      {-0.14455652236938476562f}
    },
    {
      {-0.03294863551855087280f}
    },
    {
      {-0.18235230445861816406f}
    },
    {
      {0.21431756019592285156f}
    },
    {
      {-0.33722674846649169922f}
    },
    {
      {-0.08358714729547500610f}
    },
    {
      {0.07650458067655563354f}
    },
    {
      {-0.26873794198036193848f}
    }
  }
};
static const float tensor_encoder_ca_fc_bias[8] = 
{0.13117338716983795166f, 0.05076326429843902588f, -0.32776772975921630859f, -0.05744889378547668457f, -0.13253523409366607666f, -0.02319227159023284912f, -0.00636754557490348816f, -0.19911380112171173096f};
static const float tensor_encoder_conv2_weight[8][8][1][1] = 
{
  {
    {
      {-0.23484261333942413330f}
    },
    {
      {0.03641272708773612976f}
    },
    {
      {0.32089805603027343750f}
    },
    {
      {0.02273784577846527100f}
    },
    {
      {-0.22954180836677551270f}
    },
    {
      {-0.04919089376926422119f}
    },
    {
      {0.27877059578895568848f}
    },
    {
      {-0.16490161418914794922f}
    }
  },
  {
    {
      {0.10401012003421783447f}
    },
    {
      {0.12234088033437728882f}
    },
    {
      {0.09936308860778808594f}
    },
    {
      {-0.16540871560573577881f}
    },
    {
      {0.31220349669456481934f}
    },
    {
      {0.10974613577127456665f}
    },
    {
      {-0.31122070550918579102f}
    },
    {
      {0.30611503124237060547f}
    }
  },
  {
    {
      {0.08086488395929336548f}
    },
    {
      {-0.30410176515579223633f}
    },
    {
      {0.23798032104969024658f}
    },
    {
      {0.34104132652282714844f}
    },
    {
      {-0.27421724796295166016f}
    },
    {
      {0.22985917329788208008f}
    },
    {
      {0.19927577674388885498f}
    },
    {
      {0.02560644410550594330f}
    }
  },
  {
    {
      {0.35168215632438659668f}
    },
    {
      {0.02280806191265583038f}
    },
    {
      {0.07876630872488021851f}
    },
    {
      {0.05083752796053886414f}
    },
    {
      {0.29737147688865661621f}
    },
    {
      {0.24934391677379608154f}
    },
    {
      {0.19234776496887207031f}
    },
    {
      {0.24196016788482666016f}
    }
  },
  {
    {
      {0.15696261823177337646f}
    },
    {
      {-0.10406731069087982178f}
    },
    {
      {-0.11138172447681427002f}
    },
    {
      {0.33449795842170715332f}
    },
    {
      {0.32837611436843872070f}
    },
    {
      {0.29646092653274536133f}
    },
    {
      {-0.31543409824371337891f}
    },
    {
      {0.32942280173301696777f}
    }
  },
  {
    {
      {0.06842102110385894775f}
    },
    {
      {0.08932476490736007690f}
    },
    {
      {-0.17079268395900726318f}
    },
    {
      {0.32229042053222656250f}
    },
    {
      {0.02597392164170742035f}
    },
    {
      {0.21967481076717376709f}
    },
    {
      {0.34181311726570129395f}
    },
    {
      {0.15766507387161254883f}
    }
  },
  {
    {
      {-0.29294386506080627441f}
    },
    {
      {-0.18906486034393310547f}
    },
    {
      {0.17930752038955688477f}
    },
    {
      {0.06612224876880645752f}
    },
    {
      {-0.16306374967098236084f}
    },
    {
      {0.13634783029556274414f}
    },
    {
      {0.03023985773324966431f}
    },
    {
      {0.01460881438106298447f}
    }
  },
  {
    {
      {-0.33730792999267578125f}
    },
    {
      {0.08933003246784210205f}
    },
    {
      {0.02773633413016796112f}
    },
    {
      {0.03640842810273170471f}
    },
    {
      {-0.06048477441072463989f}
    },
    {
      {-0.19010668992996215820f}
    },
    {
      {-0.23167021572589874268f}
    },
    {
      {-0.00318537442944943905f}
    }
  }
};
static const float tensor_encoder_conv2_bias[8] = 
{0.22996200621128082275f, -0.03706629946827888489f, 0.12449108064174652100f, 0.02733935415744781494f, 0.07501772046089172363f, -0.00676625501364469528f, -0.04406912252306938171f, -0.25802043080329895020f};
static const float tensor_encoder_ff_conv1_weight[16][8][1][1] = 
{
  {
    {
      {0.31138342618942260742f}
    },
    {
      {0.15949042141437530518f}
    },
    {
      {0.05841216072440147400f}
    },
    {
      {-0.17544999718666076660f}
    },
    {
      {-0.24881349503993988037f}
    },
    {
      {0.11396452784538269043f}
    },
    {
      {0.25888910889625549316f}
    },
    {
      {0.20166356861591339111f}
    }
  },
  {
    {
      {-0.00815410818904638290f}
    },
    {
      {-0.18240043520927429199f}
    },
    {
      {0.01213163323700428009f}
    },
    {
      {-0.00398940965533256531f}
    },
    {
      {-0.02033842541277408600f}
    },
    {
      {-0.01810447312891483307f}
    },
    {
      {0.35049602389335632324f}
    },
    {
      {-0.24932743608951568604f}
    }
  },
  {
    {
      {-0.11877314746379852295f}
    },
    {
      {-0.33914852142333984375f}
    },
    {
      {0.15326802432537078857f}
    },
    {
      {-0.07259549945592880249f}
    },
    {
      {0.09022928029298782349f}
    },
    {
      {0.32386970520019531250f}
    },
    {
      {0.11532402038574218750f}
    },
    {
      {0.21083185076713562012f}
    }
  },
  {
    {
      {-0.16687129437923431396f}
    },
    {
      {-0.22058615088462829590f}
    },
    {
      {0.17546491324901580811f}
    },
    {
      {-0.24897466599941253662f}
    },
    {
      {0.22394816577434539795f}
    },
    {
      {-0.00033742765663191676f}
    },
    {
      {0.04891756922006607056f}
    },
    {
      {-0.09627204388380050659f}
    }
  },
  {
    {
      {0.24829466640949249268f}
    },
    {
      {0.07334904372692108154f}
    },
    {
      {-0.31311920285224914551f}
    },
    {
      {0.10219122469425201416f}
    },
    {
      {-0.25887435674667358398f}
    },
    {
      {-0.03329883515834808350f}
    },
    {
      {0.01788261160254478455f}
    },
    {
      {-0.19337470829486846924f}
    }
  },
  {
    {
      {0.06722030043601989746f}
    },
    {
      {0.32276660203933715820f}
    },
    {
      {0.28644460439682006836f}
    },
    {
      {-0.25608092546463012695f}
    },
    {
      {-0.18549577891826629639f}
    },
    {
      {-0.18066242337226867676f}
    },
    {
      {-0.07595759630203247070f}
    },
    {
      {-0.03645154461264610291f}
    }
  },
  {
    {
      {0.07945169508457183838f}
    },
    {
      {0.02901051752269268036f}
    },
    {
      {0.27041140198707580566f}
    },
    {
      {0.00461280392482876778f}
    },
    {
      {-0.21641562879085540771f}
    },
    {
      {-0.30810427665710449219f}
    },
    {
      {-0.08163561671972274780f}
    },
    {
      {0.33792883157730102539f}
    }
  },
  {
    {
      {-0.07639870792627334595f}
    },
    {
      {-0.15165317058563232422f}
    },
    {
      {0.05642459914088249207f}
    },
    {
      {-0.04000245779752731323f}
    },
    {
      {-0.16172209382057189941f}
    },
    {
      {-0.12949614226818084717f}
    },
    {
      {0.12387278676033020020f}
    },
    {
      {0.28278246521949768066f}
    }
  },
  {
    {
      {-0.12883010506629943848f}
    },
    {
      {-0.02241500094532966614f}
    },
    {
      {-0.33394080400466918945f}
    },
    {
      {-0.17346909642219543457f}
    },
    {
      {0.30240106582641601562f}
    },
    {
      {0.18696506321430206299f}
    },
    {
      {-0.12167474627494812012f}
    },
    {
      {0.19973792135715484619f}
    }
  },
  {
    {
      {0.30895987153053283691f}
    },
    {
      {-0.22213360667228698730f}
    },
    {
      {-0.31801635026931762695f}
    },
    {
      {-0.25559517741203308105f}
    },
    {
      {0.22207330167293548584f}
    },
    {
      {0.25924032926559448242f}
    },
    {
      {0.09529549628496170044f}
    },
    {
      {-0.31198313832283020020f}
    }
  },
  {
    {
      {0.13877001404762268066f}
    },
    {
      {-0.14037555456161499023f}
    },
    {
      {0.01695205271244049072f}
    },
    {
      {-0.17779833078384399414f}
    },
    {
      {-0.23018054664134979248f}
    },
    {
      {0.15566217899322509766f}
    },
    {
      {-0.05517861247062683105f}
    },
    {
      {-0.11376158893108367920f}
    }
  },
  {
    {
      {-0.17483814060688018799f}
    },
    {
      {0.01694825850427150726f}
    },
    {
      {0.02311897836625576019f}
    },
    {
      {0.22909618914127349854f}
    },
    {
      {-0.06521980464458465576f}
    },
    {
      {-0.17514927685260772705f}
    },
    {
      {-0.22139982879161834717f}
    },
    {
      {-0.31921803951263427734f}
    }
  },
  {
    {
      {-0.24299794435501098633f}
    },
    {
      {-0.30101969838142395020f}
    },
    {
      {0.24900884926319122314f}
    },
    {
      {0.26567772030830383301f}
    },
    {
      {-0.05936973541975021362f}
    },
    {
      {0.12773756682872772217f}
    },
    {
      {0.13235433399677276611f}
    },
    {
      {0.17285555601119995117f}
    }
  },
  {
    {
      {-0.30606535077095031738f}
    },
    {
      {0.07439087331295013428f}
    },
    {
      {0.24023041129112243652f}
    },
    {
      {0.00856411270797252655f}
    },
    {
      {-0.28940102458000183105f}
    },
    {
      {-0.12228718400001525879f}
    },
    {
      {0.01330807805061340332f}
    },
    {
      {-0.20848305523395538330f}
    }
  },
  {
    {
      {-0.05710889399051666260f}
    },
    {
      {-0.32800602912902832031f}
    },
    {
      {-0.32088965177536010742f}
    },
    {
      {-0.12552401423454284668f}
    },
    {
      {-0.00836741365492343903f}
    },
    {
      {0.01789504662156105042f}
    },
    {
      {-0.05738723278045654297f}
    },
    {
      {0.28359690308570861816f}
    }
  },
  {
    {
      {-0.26750734448432922363f}
    },
    {
      {0.30164271593093872070f}
    },
    {
      {-0.02134501747786998749f}
    },
    {
      {-0.03925721719861030579f}
    },
    {
      {0.26718083024024963379f}
    },
    {
      {0.29444327950477600098f}
    },
    {
      {0.24054689705371856689f}
    },
    {
      {0.26888698339462280273f}
    }
  }
};
static const float tensor_encoder_ff_conv1_bias[16] = 
{0.03482631966471672058f, 0.17249490320682525635f, 0.30611613392829895020f, 0.12673869729042053223f, -0.14511248469352722168f, -0.07189725339412689209f, -0.10217622667551040649f, -0.32850733399391174316f, 0.23581144213676452637f, -0.05019069835543632507f, 0.32039508223533630371f, 0.23258388042449951172f, -0.17506860196590423584f, -0.33703982830047607422f, 0.17630717158317565918f, -0.20331512391567230225f};
static const float tensor_encoder_ff_conv2_weight[8][8][1][1] = 
{
  {
    {
      {0.27768036723136901855f}
    },
    {
      {0.23418462276458740234f}
    },
    {
      {0.10393568873405456543f}
    },
    {
      {-0.05932455509901046753f}
    },
    {
      {0.31034040451049804688f}
    },
    {
      {0.23728485405445098877f}
    },
    {
      {-0.13487467169761657715f}
    },
    {
      {-0.01062087900936603546f}
    }
  },
  {
    {
      {0.12751127779483795166f}
    },
    {
      {0.13882957398891448975f}
    },
    {
      {-0.15508720278739929199f}
    },
    {
      {0.31204345822334289551f}
    },
    {
      {0.15281039476394653320f}
    },
    {
      {0.01122328452765941620f}
    },
    {
      {0.04224867373704910278f}
    },
    {
      {-0.09694668650627136230f}
    }
  },
  {
    {
      {-0.29185205698013305664f}
    },
    {
      {-0.27452760934829711914f}
    },
    {
      {0.29071053862571716309f}
    },
    {
      {-0.31366902589797973633f}
    },
    {
      {0.34660711884498596191f}
    },
    {
      {-0.26740717887878417969f}
    },
    {
      {-0.20127306878566741943f}
    },
    {
      {-0.13492411375045776367f}
    }
  },
  {
    {
      {0.13141728937625885010f}
    },
    {
      {-0.13126674294471740723f}
    },
    {
      {0.09369467943906784058f}
    },
    {
      {-0.22391453385353088379f}
    },
    {
      {0.06519223749637603760f}
    },
    {
      {-0.00952375493943691254f}
    },
    {
      {-0.00408491445705294609f}
    },
    {
      {-0.27334451675415039062f}
    }
  },
  {
    {
      {-0.32789480686187744141f}
    },
    {
      {0.30993026494979858398f}
    },
    {
      {-0.05739717930555343628f}
    },
    {
      {0.20349293947219848633f}
    },
    {
      {-0.17694553732872009277f}
    },
    {
      {-0.13273626565933227539f}
    },
    {
      {0.29101449251174926758f}
    },
    {
      {-0.31789457798004150391f}
    }
  },
  {
    {
      {0.22034354507923126221f}
    },
    {
      {0.34394407272338867188f}
    },
    {
      {0.11427936702966690063f}
    },
    {
      {0.31539058685302734375f}
    },
    {
      {-0.02259290218353271484f}
    },
    {
      {0.17955033481121063232f}
    },
    {
      {-0.33016836643218994141f}
    },
    {
      {0.13245552778244018555f}
    }
  },
  {
    {
      {0.28277456760406494141f}
    },
    {
      {-0.14623051881790161133f}
    },
    {
      {0.05485471338033676147f}
    },
    {
      {-0.24771560728549957275f}
    },
    {
      {0.24913203716278076172f}
    },
    {
      {0.22709804773330688477f}
    },
    {
      {-0.10821329802274703979f}
    },
    {
      {0.07332110404968261719f}
    }
  },
  {
    {
      {-0.20725969970226287842f}
    },
    {
      {0.04438050463795661926f}
    },
    {
      {-0.03321062028408050537f}
    },
    {
      {-0.20905658602714538574f}
    },
    {
      {0.29585689306259155273f}
    },
    {
      {-0.21529731154441833496f}
    },
    {
      {-0.02939262241125106812f}
    },
    {
      {0.07363247871398925781f}
    }
  }
};
static const float tensor_encoder_ff_conv2_bias[8] = 
{0.17664523422718048096f, 0.09714464843273162842f, -0.14653898775577545166f, 0.18326523900032043457f, 0.12353865057229995728f, -0.17944028973579406738f, -0.22549799084663391113f, -0.15612444281578063965f};
static const float tensor_down_weight[16][8][2][2] = 
{
  {
    {
      {-0.12082154303789138794f, 0.03004555962979793549f},
      {-0.03553154319524765015f, -0.04303856939077377319f}
    },
    {
      {-0.01600271463394165039f, 0.15731345117092132568f},
      {0.00651583960279822350f, -0.12502579391002655029f}
    },
    {
      {0.11078922450542449951f, 0.05128955096006393433f},
      {0.00617841165512800217f, -0.02448093332350254059f}
    },
    {
      {-0.08508637547492980957f, 0.11740889400243759155f},
      {-0.16872055828571319580f, 0.12657646834850311279f}
    },
    {
      {0.14438287913799285889f, -0.09291053563356399536f},
      {-0.15646433830261230469f, 0.13003863394260406494f}
    },
    {
      {-0.15171648561954498291f, 0.13377203047275543213f},
      {0.16786980628967285156f, -0.12367609143257141113f}
    },
    {
      {0.15649892389774322510f, 0.03693486377596855164f},
      {-0.03871672600507736206f, -0.10565173625946044922f}
    },
    {
      {0.13020138442516326904f, 0.02111405320465564728f},
      {-0.10383190214633941650f, -0.14742267131805419922f}
    }
  },
  {
    {
      {0.16931332647800445557f, 0.00238747149705886841f},
      {-0.14382305741310119629f, -0.06503553688526153564f}
    },
    {
      {-0.16504174470901489258f, -0.07653068751096725464f},
      {0.14906483888626098633f, 0.14277641475200653076f}
    },
    {
      {-0.17610053718090057373f, -0.01567668840289115906f},
      {-0.00612201914191246033f, -0.09266903251409530640f}
    },
    {
      {0.01635322906076908112f, -0.01226559653878211975f},
      {-0.07246482372283935547f, -0.12405221164226531982f}
    },
    {
      {0.13988338410854339600f, -0.04746957495808601379f},
      {-0.14454619586467742920f, 0.10768688470125198364f}
    },
    {
      {0.07423937320709228516f, -0.08484636992216110229f},
      {-0.10707853734493255615f, -0.03223201259970664978f}
    },
    {
      {-0.05986959859728813171f, 0.05158420279622077942f},
      {-0.04384762048721313477f, -0.04358403384685516357f}
    },
    {
      {-0.12061561644077301025f, -0.08782341331243515015f},
      {0.04784261435270309448f, 0.14319631457328796387f}
    }
  },
  {
    {
      {-0.01919849961996078491f, 0.11736322939395904541f},
      {0.06008564308285713196f, 0.11101505160331726074f}
    },
    {
      {-0.11963602155447006226f, 0.07045779377222061157f},
      {0.02962293289601802826f, 0.10567150264978408813f}
    },
    {
      {0.12035443633794784546f, 0.09787037223577499390f},
      {0.12056411057710647583f, 0.17604738473892211914f}
    },
    {
      {-0.05606238916516304016f, -0.12356669455766677856f},
      {-0.06531084328889846802f, 0.05679506808519363403f}
    },
    {
      {-0.08733256906270980835f, 0.12888072431087493896f},
      {-0.13918362557888031006f, -0.06554062664508819580f}
    },
    {
      {-0.07957168668508529663f, -0.01038932427763938904f},
      {-0.05530747398734092712f, 0.16603350639343261719f}
    },
    {
      {0.04463888704776763916f, 0.04667493700981140137f},
      {-0.16153293848037719727f, 0.05767226964235305786f}
    },
    {
      {0.01881631277501583099f, 0.16493995487689971924f},
      {-0.14249427616596221924f, 0.00877762865275144577f}
    }
  },
  {
    {
      {-0.10554965585470199585f, 0.03750563785433769226f},
      {0.02427017875015735626f, 0.06022533774375915527f}
    },
    {
      {0.16132746636867523193f, -0.06925759464502334595f},
      {-0.14260238409042358398f, -0.14421473443508148193f}
    },
    {
      {0.02778436057269573212f, 0.09126766771078109741f},
      {0.00480962963774800301f, 0.13750854134559631348f}
    },
    {
      {-0.03003120981156826019f, 0.01469323411583900452f},
      {-0.10482363402843475342f, 0.05629773437976837158f}
    },
    {
      {0.04384566098451614380f, 0.12854954600334167480f},
      {-0.11324895918369293213f, -0.17429076135158538818f}
    },
    {
      {0.14578716456890106201f, -0.00126063334755599499f},
      {0.01333001535385847092f, 0.10100182145833969116f}
    },
    {
      {0.05966817587614059448f, 0.15333019196987152100f},
      {-0.12402576208114624023f, 0.04842335730791091919f}
    },
    {
      {0.00919477734714746475f, 0.14132545888423919678f},
      {-0.12041251361370086670f, 0.06181937456130981445f}
    }
  },
  {
    {
      {0.08712674677371978760f, -0.15564429759979248047f},
      {-0.08498115092515945435f, 0.12677091360092163086f}
    },
    {
      {0.13589623570442199707f, 0.07551353424787521362f},
      {-0.01388711202889680862f, 0.16823592782020568848f}
    },
    {
      {-0.07153186202049255371f, -0.04734212160110473633f},
      {0.09993591159582138062f, 0.14547631144523620605f}
    },
    {
      {-0.04927251115441322327f, -0.08428847044706344604f},
      {0.16858540475368499756f, 0.16759617626667022705f}
    },
    {
      {-0.00919490400701761246f, -0.10842533409595489502f},
      {-0.09667247533798217773f, 0.13156138360500335693f}
    },
    {
      {-0.00544033618643879890f, -0.09521228075027465820f},
      {-0.14813669025897979736f, 0.04500324651598930359f}
    },
    {
      {-0.00973615329712629318f, 0.09093470871448516846f},
      {-0.05366208404302597046f, 0.10009442269802093506f}
    },
    {
      {-0.17387707531452178955f, -0.02173932269215583801f},
      {-0.11267793178558349609f, -0.03520547226071357727f}
    }
  },
  {
    {
      {0.15881016850471496582f, 0.01673815771937370300f},
      {-0.04214899614453315735f, 0.02107319235801696777f}
    },
    {
      {-0.00769481342285871506f, 0.06046264618635177612f},
      {0.03411207720637321472f, -0.12881052494049072266f}
    },
    {
      {-0.06265044957399368286f, -0.04691814631223678589f},
      {0.17569701373577117920f, 0.09255684167146682739f}
    },
    {
      {0.14746940135955810547f, -0.04287990927696228027f},
      {-0.01418211963027715683f, 0.01454196870326995850f}
    },
    {
      {0.06705578416585922241f, 0.14801429212093353271f},
      {-0.11107131838798522949f, -0.13956494629383087158f}
    },
    {
      {0.13968327641487121582f, 0.00597496889531612396f},
      {-0.03993744775652885437f, 0.04583151638507843018f}
    },
    {
      {-0.04653985425829887390f, 0.00959694292396306992f},
      {0.07359884679317474365f, -0.12939320504665374756f}
    },
    {
      {-0.06026444956660270691f, 0.17136512696743011475f},
      {-0.04265956580638885498f, 0.04233252629637718201f}
    }
  },
  {
    {
      {0.04433003440499305725f, 0.08537360280752182007f},
      {0.13375064730644226074f, -0.09552342444658279419f}
    },
    {
      {-0.08613137900829315186f, 0.08627215027809143066f},
      {0.05710469931364059448f, -0.10884243994951248169f}
    },
    {
      {0.10848198086023330688f, -0.08700709044933319092f},
      {-0.14145350456237792969f, 0.01966068334877490997f}
    },
    {
      {0.00006612840661546215f, 0.03731386736035346985f},
      {0.11731132864952087402f, 0.05103252083063125610f}
    },
    {
      {0.04921453818678855896f, -0.05686069279909133911f},
      {-0.05199530348181724548f, 0.04250210523605346680f}
    },
    {
      {-0.06701993942260742188f, 0.12449091672897338867f},
      {-0.08333864808082580566f, 0.16452282667160034180f}
    },
    {
      {0.03689349442720413208f, 0.09257317334413528442f},
      {-0.16396898031234741211f, 0.04491741210222244263f}
    },
    {
      {-0.17441454529762268066f, 0.13665623962879180908f},
      {-0.14105504751205444336f, 0.03673755377531051636f}
    }
  },
  {
    {
      {-0.10291838645935058594f, -0.10199798643589019775f},
      {-0.04845060408115386963f, -0.00105320755392313004f}
    },
    {
      {0.15936827659606933594f, 0.07321254909038543701f},
      {0.14454318583011627197f, 0.05663493275642395020f}
    },
    {
      {-0.09084095805883407593f, -0.06042857095599174500f},
      {0.15498605370521545410f, -0.15519699454307556152f}
    },
    {
      {0.07148128747940063477f, 0.10887426137924194336f},
      {0.01183021999895572662f, -0.00434241071343421936f}
    },
    {
      {0.10688611119985580444f, 0.03395295143127441406f},
      {0.09951075166463851929f, 0.10352235287427902222f}
    },
    {
      {-0.06377983093261718750f, -0.03707285225391387939f},
      {0.04839166253805160522f, -0.10271730273962020874f}
    },
    {
      {-0.15870013833045959473f, 0.04388165473937988281f},
      {-0.01621838100254535675f, -0.11518495529890060425f}
    },
    {
      {-0.15362869203090667725f, -0.14972376823425292969f},
      {0.05060799792408943176f, -0.16772148013114929199f}
    }
  },
  {
    {
      {-0.15102709829807281494f, -0.13122001290321350098f},
      {0.12067209184169769287f, 0.00186074117664247751f}
    },
    {
      {0.06492439657449722290f, -0.01960688270628452301f},
      {0.07088884711265563965f, 0.01920817233622074127f}
    },
    {
      {-0.03876770287752151489f, 0.08754620701074600220f},
      {0.05656402185559272766f, 0.07538020610809326172f}
    },
    {
      {0.02220378071069717407f, 0.01317666377872228622f},
      {-0.15196932852268218994f, 0.01581077836453914642f}
    },
    {
      {-0.10128351300954818726f, -0.08546447008848190308f},
      {0.12648248672485351562f, -0.01104620378464460373f}
    },
    {
      {0.09080555289983749390f, -0.02069340646266937256f},
      {0.10761957615613937378f, -0.01273041311651468277f}
    },
    {
      {-0.14258822798728942871f, -0.00658460194244980812f},
      {-0.08844697475433349609f, -0.02749068103730678558f}
    },
    {
      {-0.02450664341449737549f, -0.10349063575267791748f},
      {-0.13987211883068084717f, -0.15397341549396514893f}
    }
  },
  {
    {
      {0.03303560614585876465f, -0.16678710281848907471f},
      {-0.12236622720956802368f, 0.06640092283487319946f}
    },
    {
      {-0.00986120291054248810f, -0.13046938180923461914f},
      {0.09958119690418243408f, -0.03472147881984710693f}
    },
    {
      {-0.05566747114062309265f, 0.02796542458236217499f},
      {0.15034003555774688721f, 0.14262837171554565430f}
    },
    {
      {-0.03456481918692588806f, 0.00362446042709052563f},
      {-0.03517432510852813721f, -0.16219118237495422363f}
    },
    {
      {0.17447185516357421875f, -0.07461625337600708008f},
      {-0.14611922204494476318f, -0.16287156939506530762f}
    },
    {
      {0.04050527140498161316f, 0.10056035220623016357f},
      {-0.06627250462770462036f, -0.15955407917499542236f}
    },
    {
      {-0.17603380978107452393f, 0.15858119726181030273f},
      {-0.14213015139102935791f, 0.03765074908733367920f}
    },
    {
      {-0.10570311546325683594f, 0.14036054909229278564f},
      {0.14652507007122039795f, 0.00293430569581687450f}
    }
  },
  {
    {
      {-0.16870750486850738525f, -0.14047713577747344971f},
      {0.02450308203697204590f, 0.16916832327842712402f}
    },
    {
      {0.06560017913579940796f, 0.09643106162548065186f},
      {-0.10512264817953109741f, -0.16612625122070312500f}
    },
    {
      {-0.00074393401155248284f, -0.07937501370906829834f},
      {0.00697220535948872566f, -0.00662027951329946518f}
    },
    {
      {-0.11911200731992721558f, 0.11215693503618240356f},
      {-0.08685713261365890503f, 0.09614676237106323242f}
    },
    {
      {0.03421249240636825562f, -0.04057755321264266968f},
      {0.10582923889160156250f, 0.14951960742473602295f}
    },
    {
      {-0.10927830636501312256f, -0.00943887047469615936f},
      {-0.07231130450963973999f, 0.09214953333139419556f}
    },
    {
      {-0.08419024944305419922f, -0.08830158412456512451f},
      {-0.13923557102680206299f, -0.01965821720659732819f}
    },
    {
      {-0.02968305535614490509f, -0.03265078365802764893f},
      {-0.07478892803192138672f, -0.06139638647437095642f}
    }
  },
  {
    {
      {-0.02870078198611736298f, 0.17303192615509033203f},
      {0.07902313023805618286f, 0.04251242801547050476f}
    },
    {
      {-0.03531562164425849915f, 0.02150399610400199890f},
      {-0.05892974510788917542f, 0.06457763165235519409f}
    },
    {
      {0.05007829517126083374f, -0.14334954321384429932f},
      {0.06336932629346847534f, -0.04289889335632324219f}
    },
    {
      {-0.13224998116493225098f, -0.11527287214994430542f},
      {0.08082246035337448120f, -0.07843654602766036987f}
    },
    {
      {-0.15044060349464416504f, 0.03255161270499229431f},
      {0.09218023717403411865f, 0.15214204788208007812f}
    },
    {
      {0.04240377619862556458f, 0.17282451689243316650f},
      {-0.15703849494457244873f, -0.02227909676730632782f}
    },
    {
      {-0.12346649169921875000f, 0.02369858324527740479f},
      {-0.04504286125302314758f, -0.04392186179757118225f}
    },
    {
      {0.14326775074005126953f, -0.04509453475475311279f},
      {0.03102450631558895111f, 0.06058491393923759460f}
    }
  },
  {
    {
      {0.01340012624859809875f, 0.14581188559532165527f},
      {-0.00911079999059438705f, 0.11178591847419738770f}
    },
    {
      {0.07133543491363525391f, -0.06602693349123001099f},
      {0.17423397302627563477f, 0.11786751449108123779f}
    },
    {
      {-0.16164612770080566406f, -0.12220665812492370605f},
      {0.09219779074192047119f, -0.13048923015594482422f}
    },
    {
      {0.04953597113490104675f, -0.09679047018289566040f},
      {0.09648905694484710693f, -0.11354514956474304199f}
    },
    {
      {0.11188818514347076416f, 0.08471532911062240601f},
      {-0.10422968119382858276f, -0.09434127062559127808f}
    },
    {
      {0.01941694691777229309f, -0.01390801742672920227f},
      {0.01470756437629461288f, 0.04789266362786293030f}
    },
    {
      {-0.17162506282329559326f, 0.08104702085256576538f},
      {-0.06299946457147598267f, 0.03581656143069267273f}
    },
    {
      {0.11645252257585525513f, 0.09446737915277481079f},
      {-0.11713812500238418579f, 0.10270426422357559204f}
    }
  },
  {
    {
      {0.07133581489324569702f, -0.04220840334892272949f},
      {0.09790042787790298462f, 0.00518705463036894798f}
    },
    {
      {0.07458654046058654785f, 0.05627166852355003357f},
      {0.04297109320759773254f, 0.17003726959228515625f}
    },
    {
      {0.09549873322248458862f, -0.07363566756248474121f},
      {0.15385766327381134033f, 0.10816600918769836426f}
    },
    {
      {0.03913400322198867798f, -0.06454010307788848877f},
      {0.07846314460039138794f, 0.06474646925926208496f}
    },
    {
      {-0.11341173201799392700f, 0.13080181181430816650f},
      {0.08961376547813415527f, -0.06327477097511291504f}
    },
    {
      {-0.05837007611989974976f, -0.01820981875061988831f},
      {-0.10581111907958984375f, 0.09989231079816818237f}
    },
    {
      {0.14968238770961761475f, -0.12963640689849853516f},
      {-0.08627343922853469849f, 0.07185047119855880737f}
    },
    {
      {0.11956070363521575928f, -0.05079875141382217407f},
      {0.07657658308744430542f, -0.02121316269040107727f}
    }
  },
  {
    {
      {0.16485355794429779053f, 0.05458334833383560181f},
      {-0.05850806459784507751f, -0.14807914197444915771f}
    },
    {
      {0.16502204537391662598f, -0.12799718976020812988f},
      {-0.15584906935691833496f, 0.12571686506271362305f}
    },
    {
      {-0.12939484417438507080f, 0.13682186603546142578f},
      {-0.14718952775001525879f, 0.04159453511238098145f}
    },
    {
      {-0.17166306078433990479f, -0.09477787464857101440f},
      {0.11080726236104965210f, -0.09374299645423889160f}
    },
    {
      {0.12788099050521850586f, 0.07150524854660034180f},
      {0.03798514232039451599f, 0.08601751923561096191f}
    },
    {
      {-0.12670950591564178467f, 0.10929602384567260742f},
      {-0.11611085385084152222f, 0.17113529145717620850f}
    },
    {
      {0.10820073634386062622f, -0.02679329924285411835f},
      {0.09903270006179809570f, -0.07988972961902618408f}
    },
    {
      {0.00427162507548928261f, -0.08795796334743499756f},
      {-0.02447463199496269226f, -0.12377140671014785767f}
    }
  },
  {
    {
      {-0.02381838485598564148f, -0.08577494323253631592f},
      {-0.11387608200311660767f, -0.05382397025823593140f}
    },
    {
      {-0.03756470605731010437f, 0.10800842195749282837f},
      {-0.09117536991834640503f, -0.04878318682312965393f}
    },
    {
      {-0.01465873699635267258f, -0.11692481487989425659f},
      {0.12059715390205383301f, 0.10842002928256988525f}
    },
    {
      {-0.12699218094348907471f, 0.08987684547901153564f},
      {0.08552111685276031494f, 0.12404864281415939331f}
    },
    {
      {-0.07154267281293869019f, -0.08759402483701705933f},
      {-0.15290315449237823486f, 0.00054744537919759750f}
    },
    {
      {0.09768596291542053223f, 0.16380013525485992432f},
      {-0.10348773002624511719f, -0.14497388899326324463f}
    },
    {
      {-0.08470688015222549438f, 0.15560607612133026123f},
      {-0.16349202394485473633f, 0.09332570433616638184f}
    },
    {
      {-0.10569401085376739502f, 0.17181031405925750732f},
      {0.16698867082595825195f, -0.03326838091015815735f}
    }
  }
};
static const float tensor_down_bias[16] = 
{-0.15875570476055145264f, -0.13078550994396209717f, -0.06881944090127944946f, 0.15865506231784820557f, 0.01408001873642206192f, -0.14773072302341461182f, 0.07782065868377685547f, -0.07935827970504760742f, -0.11616897583007812500f, -0.03706545382738113403f, 0.00417772214859724045f, -0.08607429265975952148f, 0.15252941846847534180f, -0.06658913195133209229f, 0.02885297313332557678f, -0.10227714478969573975f};
static const float tensor_middle_conv1_weight[32][16][1][1] = 
{
  {
    {
      {0.16862276196479797363f}
    },
    {
      {-0.24854493141174316406f}
    },
    {
      {-0.16909271478652954102f}
    },
    {
      {0.09556221961975097656f}
    },
    {
      {0.18489196896553039551f}
    },
    {
      {-0.05310812592506408691f}
    },
    {
      {-0.07023930549621582031f}
    },
    {
      {-0.15152698755264282227f}
    },
    {
      {0.16520035266876220703f}
    },
    {
      {0.15721848607063293457f}
    },
    {
      {-0.11991870403289794922f}
    },
    {
      {0.06090363860130310059f}
    },
    {
      {-0.00168949365615844727f}
    },
    {
      {0.16897776722908020020f}
    },
    {
      {0.16476836800575256348f}
    },
    {
      {0.13281953334808349609f}
    }
  },
  {
    {
      {-0.04485061764717102051f}
    },
    {
      {0.20211836695671081543f}
    },
    {
      {0.24737876653671264648f}
    },
    {
      {-0.01746064424514770508f}
    },
    {
      {0.23950365185737609863f}
    },
    {
      {-0.21922793984413146973f}
    },
    {
      {0.04195967316627502441f}
    },
    {
      {0.09522190690040588379f}
    },
    {
      {0.02400884032249450684f}
    },
    {
      {-0.01883941888809204102f}
    },
    {
      {-0.09197363257408142090f}
    },
    {
      {-0.17574948072433471680f}
    },
    {
      {-0.08761116862297058105f}
    },
    {
      {-0.15560963749885559082f}
    },
    {
      {-0.01530048251152038574f}
    },
    {
      {-0.19466313719749450684f}
    }
  },
  {
    {
      {-0.19624599814414978027f}
    },
    {
      {-0.09875836968421936035f}
    },
    {
      {-0.13907802104949951172f}
    },
    {
      {-0.20738413929939270020f}
    },
    {
      {-0.09138655662536621094f}
    },
    {
      {0.24898564815521240234f}
    },
    {
      {-0.23130145668983459473f}
    },
    {
      {-0.20908436179161071777f}
    },
    {
      {-0.10133317112922668457f}
    },
    {
      {0.11508366465568542480f}
    },
    {
      {0.16508349776268005371f}
    },
    {
      {-0.08208331465721130371f}
    },
    {
      {0.20892444252967834473f}
    },
    {
      {-0.23139411211013793945f}
    },
    {
      {-0.04296925663948059082f}
    },
    {
      {-0.10796540975570678711f}
    }
  },
  {
    {
      {-0.17399254441261291504f}
    },
    {
      {0.07809135317802429199f}
    },
    {
      {0.10510441660881042480f}
    },
    {
      {0.10356485843658447266f}
    },
    {
      {-0.01140797138214111328f}
    },
    {
      {-0.12967339158058166504f}
    },
    {
      {0.15029948949813842773f}
    },
    {
      {-0.04294291138648986816f}
    },
    {
      {0.15928217768669128418f}
    },
    {
      {-0.05703717470169067383f}
    },
    {
      {-0.19398757815361022949f}
    },
    {
      {0.09171092510223388672f}
    },
    {
      {0.15315896272659301758f}
    },
    {
      {0.14399096369743347168f}
    },
    {
      {0.09384593367576599121f}
    },
    {
      {0.04090875387191772461f}
    }
  },
  {
    {
      {0.11524069309234619141f}
    },
    {
      {-0.22668126225471496582f}
    },
    {
      {0.02197149395942687988f}
    },
    {
      {0.12207511067390441895f}
    },
    {
      {0.14210730791091918945f}
    },
    {
      {-0.08620801568031311035f}
    },
    {
      {-0.22356936335563659668f}
    },
    {
      {0.00647523999214172363f}
    },
    {
      {0.05395945906639099121f}
    },
    {
      {0.04973328113555908203f}
    },
    {
      {-0.21152952313423156738f}
    },
    {
      {0.06845948100090026855f}
    },
    {
      {0.23561778664588928223f}
    },
    {
      {0.18142336606979370117f}
    },
    {
      {-0.14425966143608093262f}
    },
    {
      {0.04762253165245056152f}
    }
  },
  {
    {
      {-0.16693213582038879395f}
    },
    {
      {-0.08414980769157409668f}
    },
    {
      {0.07421192526817321777f}
    },
    {
      {0.06794887781143188477f}
    },
    {
      {-0.16988340020179748535f}
    },
    {
      {0.07060560584068298340f}
    },
    {
      {-0.14545795321464538574f}
    },
    {
      {0.03341928124427795410f}
    },
    {
      {0.03678598999977111816f}
    },
    {
      {-0.15166354179382324219f}
    },
    {
      {0.24431425333023071289f}
    },
    {
      {-0.24984022974967956543f}
    },
    {
      {-0.18152260780334472656f}
    },
    {
      {0.17275896668434143066f}
    },
    {
      {0.14991819858551025391f}
    },
    {
      {0.00913351774215698242f}
    }
  },
  {
    {
      {-0.03235328197479248047f}
    },
    {
      {0.18671131134033203125f}
    },
    {
      {0.05326572060585021973f}
    },
    {
      {0.24437206983566284180f}
    },
    {
      {0.15024346113204956055f}
    },
    {
      {0.19832769036293029785f}
    },
    {
      {-0.08554998040199279785f}
    },
    {
      {0.14557054638862609863f}
    },
    {
      {-0.10255089402198791504f}
    },
    {
      {0.13492232561111450195f}
    },
    {
      {0.03720921277999877930f}
    },
    {
      {-0.14207717776298522949f}
    },
    {
      {0.14154645800590515137f}
    },
    {
      {0.14695861935615539551f}
    },
    {
      {0.23588404059410095215f}
    },
    {
      {-0.03730389475822448730f}
    }
  },
  {
    {
      {0.01315912604331970215f}
    },
    {
      {-0.01677927374839782715f}
    },
    {
      {-0.02619168162345886230f}
    },
    {
      {-0.16822385787963867188f}
    },
    {
      {0.17274647951126098633f}
    },
    {
      {0.23424118757247924805f}
    },
    {
      {0.20679637789726257324f}
    },
    {
      {-0.06869509816169738770f}
    },
    {
      {0.13171797990798950195f}
    },
    {
      {-0.03396940231323242188f}
    },
    {
      {0.04948356747627258301f}
    },
    {
      {-0.02597960829734802246f}
    },
    {
      {0.18927511572837829590f}
    },
    {
      {0.01585060358047485352f}
    },
    {
      {-0.07210803031921386719f}
    },
    {
      {0.07391807436943054199f}
    }
  },
  {
    {
      {-0.12601286172866821289f}
    },
    {
      {0.00459009408950805664f}
    },
    {
      {0.06083613634109497070f}
    },
    {
      {0.19023486971855163574f}
    },
    {
      {-0.10362920165061950684f}
    },
    {
      {0.06348583102226257324f}
    },
    {
      {-0.19756883382797241211f}
    },
    {
      {-0.20896628499031066895f}
    },
    {
      {0.21306326985359191895f}
    },
    {
      {-0.14076411724090576172f}
    },
    {
      {0.03826764225959777832f}
    },
    {
      {-0.04186522960662841797f}
    },
    {
      {-0.10451543331146240234f}
    },
    {
      {-0.20098751783370971680f}
    },
    {
      {0.21909582614898681641f}
    },
    {
      {-0.14376193284988403320f}
    }
  },
  {
    {
      {-0.18306297063827514648f}
    },
    {
      {-0.04789951443672180176f}
    },
    {
      {-0.01108640432357788086f}
    },
    {
      {-0.02499029040336608887f}
    },
    {
      {-0.09727206826210021973f}
    },
    {
      {-0.04929491877555847168f}
    },
    {
      {0.04534304141998291016f}
    },
    {
      {0.21168509125709533691f}
    },
    {
      {0.19219556450843811035f}
    },
    {
      {-0.16492238640785217285f}
    },
    {
      {-0.07567325234413146973f}
    },
    {
      {-0.24903532862663269043f}
    },
    {
      {0.17473244667053222656f}
    },
    {
      {0.05859538912773132324f}
    },
    {
      {0.07016637921333312988f}
    },
    {
      {-0.06705862283706665039f}
    }
  },
  {
    {
      {0.20158296823501586914f}
    },
    {
      {-0.06111875176429748535f}
    },
    {
      {0.12899309396743774414f}
    },
    {
      {-0.16012611985206604004f}
    },
    {
      {0.01438850164413452148f}
    },
    {
      {-0.12276971340179443359f}
    },
    {
      {0.11068481206893920898f}
    },
    {
      {0.06836777925491333008f}
    },
    {
      {0.11370617151260375977f}
    },
    {
      {0.17853337526321411133f}
    },
    {
      {-0.00126183032989501953f}
    },
    {
      {-0.02900302410125732422f}
    },
    {
      {-0.11084833741188049316f}
    },
    {
      {0.15168958902359008789f}
    },
    {
      {0.22935503721237182617f}
    },
    {
      {-0.22291976213455200195f}
    }
  },
  {
    {
      {0.07755410671234130859f}
    },
    {
      {-0.16375058889389038086f}
    },
    {
      {0.05096685886383056641f}
    },
    {
      {-0.19509056210517883301f}
    },
    {
      {-0.02452954649925231934f}
    },
    {
      {-0.00688558816909790039f}
    },
    {
      {0.05494496226310729980f}
    },
    {
      {-0.04287850856781005859f}
    },
    {
      {0.02556118369102478027f}
    },
    {
      {0.14736786484718322754f}
    },
    {
      {-0.19567403197288513184f}
    },
    {
      {0.14672911167144775391f}
    },
    {
      {0.04093828797340393066f}
    },
    {
      {0.08999133110046386719f}
    },
    {
      {-0.00586423277854919434f}
    },
    {
      {-0.03403669595718383789f}
    }
  },
  {
    {
      {-0.05074593424797058105f}
    },
    {
      {-0.07793503999710083008f}
    },
    {
      {-0.08205646276473999023f}
    },
    {
      {-0.00439035892486572266f}
    },
    {
      {0.22159513831138610840f}
    },
    {
      {-0.17023107409477233887f}
    },
    {
      {0.13331434130668640137f}
    },
    {
      {0.24008914828300476074f}
    },
    {
      {-0.12962985038757324219f}
    },
    {
      {-0.03770264983177185059f}
    },
    {
      {0.11184704303741455078f}
    },
    {
      {0.05707061290740966797f}
    },
    {
      {-0.05480751395225524902f}
    },
    {
      {-0.05772051215171813965f}
    },
    {
      {-0.11623191833496093750f}
    },
    {
      {0.20521613955497741699f}
    }
  },
  {
    {
      {-0.14957439899444580078f}
    },
    {
      {-0.03409296274185180664f}
    },
    {
      {-0.07499125599861145020f}
    },
    {
      {-0.06335127353668212891f}
    },
    {
      {0.01613613963127136230f}
    },
    {
      {-0.24299290776252746582f}
    },
    {
      {-0.09486234188079833984f}
    },
    {
      {-0.09695407748222351074f}
    },
    {
      {-0.10587242245674133301f}
    },
    {
      {0.07432791590690612793f}
    },
    {
      {0.08029979467391967773f}
    },
    {
      {0.12613773345947265625f}
    },
    {
      {-0.21412011981010437012f}
    },
    {
      {0.18907457590103149414f}
    },
    {
      {-0.17975267767906188965f}
    },
    {
      {-0.11799618601799011230f}
    }
  },
  {
    {
      {0.13119113445281982422f}
    },
    {
      {0.18343541026115417480f}
    },
    {
      {-0.15582749247550964355f}
    },
    {
      {0.24265146255493164062f}
    },
    {
      {-0.20513755083084106445f}
    },
    {
      {-0.22173374891281127930f}
    },
    {
      {0.20812621712684631348f}
    },
    {
      {0.00320234894752502441f}
    },
    {
      {0.05781558156013488770f}
    },
    {
      {-0.03441199660301208496f}
    },
    {
      {0.21344876289367675781f}
    },
    {
      {0.06237724423408508301f}
    },
    {
      {-0.06488755345344543457f}
    },
    {
      {-0.17705649137496948242f}
    },
    {
      {0.03071004152297973633f}
    },
    {
      {0.08866071701049804688f}
    }
  },
  {
    {
      {-0.12922778725624084473f}
    },
    {
      {0.07581236958503723145f}
    },
    {
      {-0.05680269002914428711f}
    },
    {
      {0.20930764079093933105f}
    },
    {
      {0.18538036942481994629f}
    },
    {
      {-0.17956751585006713867f}
    },
    {
      {0.00941643118858337402f}
    },
    {
      {0.02595806121826171875f}
    },
    {
      {-0.01339060068130493164f}
    },
    {
      {-0.15963035821914672852f}
    },
    {
      {0.13045385479927062988f}
    },
    {
      {0.07800191640853881836f}
    },
    {
      {0.17756778001785278320f}
    },
    {
      {-0.11038139462471008301f}
    },
    {
      {-0.08892214298248291016f}
    },
    {
      {-0.13573098182678222656f}
    }
  },
  {
    {
      {0.19787192344665527344f}
    },
    {
      {-0.19751119613647460938f}
    },
    {
      {-0.18546628952026367188f}
    },
    {
      {0.13314342498779296875f}
    },
    {
      {0.08945217728614807129f}
    },
    {
      {0.03737181425094604492f}
    },
    {
      {-0.24887067079544067383f}
    },
    {
      {-0.02970734238624572754f}
    },
    {
      {0.17814752459526062012f}
    },
    {
      {-0.10576289892196655273f}
    },
    {
      {0.23288622498512268066f}
    },
    {
      {0.15708002448081970215f}
    },
    {
      {-0.05450814962387084961f}
    },
    {
      {-0.17165514826774597168f}
    },
    {
      {0.07069915533065795898f}
    },
    {
      {-0.01766255497932434082f}
    }
  },
  {
    {
      {-0.09195676445960998535f}
    },
    {
      {0.15788167715072631836f}
    },
    {
      {0.19556879997253417969f}
    },
    {
      {-0.03880211710929870605f}
    },
    {
      {-0.17092585563659667969f}
    },
    {
      {-0.04224011301994323730f}
    },
    {
      {-0.04251199960708618164f}
    },
    {
      {-0.10560479760169982910f}
    },
    {
      {-0.06229558587074279785f}
    },
    {
      {-0.22501441836357116699f}
    },
    {
      {-0.16092753410339355469f}
    },
    {
      {0.04620859026908874512f}
    },
    {
      {0.22369715571403503418f}
    },
    {
      {0.23978179693222045898f}
    },
    {
      {-0.02622088789939880371f}
    },
    {
      {0.20843675732612609863f}
    }
  },
  {
    {
      {0.22410038113594055176f}
    },
    {
      {-0.13904264569282531738f}
    },
    {
      {0.08831629157066345215f}
    },
    {
      {-0.15492296218872070312f}
    },
    {
      {0.05256468057632446289f}
    },
    {
      {0.11537918448448181152f}
    },
    {
      {-0.23781445622444152832f}
    },
    {
      {-0.21162259578704833984f}
    },
    {
      {-0.10838389396667480469f}
    },
    {
      {0.18958744406700134277f}
    },
    {
      {-0.17972108721733093262f}
    },
    {
      {-0.22256428003311157227f}
    },
    {
      {0.00243312120437622070f}
    },
    {
      {-0.24933281540870666504f}
    },
    {
      {-0.03989237546920776367f}
    },
    {
      {0.04845559597015380859f}
    }
  },
  {
    {
      {0.07346323132514953613f}
    },
    {
      {-0.08477994799613952637f}
    },
    {
      {-0.03580614924430847168f}
    },
    {
      {-0.15722534060478210449f}
    },
    {
      {-0.00854924321174621582f}
    },
    {
      {-0.18340522050857543945f}
    },
    {
      {-0.03353893756866455078f}
    },
    {
      {-0.23203146457672119141f}
    },
    {
      {0.00288319587707519531f}
    },
    {
      {0.05872181057929992676f}
    },
    {
      {-0.02941346168518066406f}
    },
    {
      {0.14812704920768737793f}
    },
    {
      {-0.14097252488136291504f}
    },
    {
      {0.00169843435287475586f}
    },
    {
      {0.03604072332382202148f}
    },
    {
      {-0.17328065633773803711f}
    }
  },
  {
    {
      {0.15027204155921936035f}
    },
    {
      {0.20220053195953369141f}
    },
    {
      {0.09931606054306030273f}
    },
    {
      {0.03354364633560180664f}
    },
    {
      {-0.24781528115272521973f}
    },
    {
      {0.22004514932632446289f}
    },
    {
      {0.15196821093559265137f}
    },
    {
      {-0.23270273208618164062f}
    },
    {
      {-0.24059504270553588867f}
    },
    {
      {0.15662917494773864746f}
    },
    {
      {0.05647587776184082031f}
    },
    {
      {0.22247928380966186523f}
    },
    {
      {-0.01573771238327026367f}
    },
    {
      {0.08628064393997192383f}
    },
    {
      {-0.17263215780258178711f}
    },
    {
      {-0.08742257952690124512f}
    }
  },
  {
    {
      {-0.19247639179229736328f}
    },
    {
      {-0.11532387137413024902f}
    },
    {
      {0.19405519962310791016f}
    },
    {
      {0.18728247284889221191f}
    },
    {
      {0.22237002849578857422f}
    },
    {
      {0.09227305650711059570f}
    },
    {
      {-0.02486065030097961426f}
    },
    {
      {-0.13207563757896423340f}
    },
    {
      {0.02147847414016723633f}
    },
    {
      {-0.19279038906097412109f}
    },
    {
      {-0.23967394232749938965f}
    },
    {
      {-0.07157969474792480469f}
    },
    {
      {0.10238805413246154785f}
    },
    {
      {0.17182508111000061035f}
    },
    {
      {-0.19062525033950805664f}
    },
    {
      {-0.18574440479278564453f}
    }
  },
  {
    {
      {0.14276888966560363770f}
    },
    {
      {-0.18219894170761108398f}
    },
    {
      {0.06391602754592895508f}
    },
    {
      {0.21705934405326843262f}
    },
    {
      {-0.21040308475494384766f}
    },
    {
      {-0.19574546813964843750f}
    },
    {
      {-0.11415150761604309082f}
    },
    {
      {0.01524078845977783203f}
    },
    {
      {0.13868075609207153320f}
    },
    {
      {-0.12538790702819824219f}
    },
    {
      {0.00186455249786376953f}
    },
    {
      {-0.11467665433883666992f}
    },
    {
      {-0.05228817462921142578f}
    },
    {
      {0.23500037193298339844f}
    },
    {
      {0.05102032423019409180f}
    },
    {
      {0.12654408812522888184f}
    }
  },
  {
    {
      {0.17643877863883972168f}
    },
    {
      {-0.17494821548461914062f}
    },
    {
      {0.02251076698303222656f}
    },
    {
      {0.21377921104431152344f}
    },
    {
      {-0.09643808007240295410f}
    },
    {
      {0.07038611173629760742f}
    },
    {
      {0.06307494640350341797f}
    },
    {
      {-0.02682352066040039062f}
    },
    {
      {-0.24034914374351501465f}
    },
    {
      {-0.22620829939842224121f}
    },
    {
      {0.04721024632453918457f}
    },
    {
      {0.16204309463500976562f}
    },
    {
      {-0.17087799310684204102f}
    },
    {
      {-0.05922520160675048828f}
    },
    {
      {-0.10855239629745483398f}
    },
    {
      {-0.03189867734909057617f}
    }
  },
  {
    {
      {-0.23986715078353881836f}
    },
    {
      {0.13191273808479309082f}
    },
    {
      {0.09048053622245788574f}
    },
    {
      {0.16576012969017028809f}
    },
    {
      {0.11779597401618957520f}
    },
    {
      {0.24546042084693908691f}
    },
    {
      {-0.22328150272369384766f}
    },
    {
      {0.00994727015495300293f}
    },
    {
      {-0.01308694481849670410f}
    },
    {
      {-0.04937812685966491699f}
    },
    {
      {0.06539243459701538086f}
    },
    {
      {0.14917528629302978516f}
    },
    {
      {0.10553541779518127441f}
    },
    {
      {-0.00569123029708862305f}
    },
    {
      {0.04000794887542724609f}
    },
    {
      {-0.09755146503448486328f}
    }
  },
  {
    {
      {-0.13456743955612182617f}
    },
    {
      {0.15771961212158203125f}
    },
    {
      {-0.13498416543006896973f}
    },
    {
      {0.14205235242843627930f}
    },
    {
      {0.03485479950904846191f}
    },
    {
      {0.21232482790946960449f}
    },
    {
      {-0.22178331017494201660f}
    },
    {
      {0.19579130411148071289f}
    },
    {
      {-0.07911631464958190918f}
    },
    {
      {0.08088502287864685059f}
    },
    {
      {-0.23049771785736083984f}
    },
    {
      {-0.13365137577056884766f}
    },
    {
      {-0.22494596242904663086f}
    },
    {
      {0.13170927762985229492f}
    },
    {
      {0.19844397902488708496f}
    },
    {
      {-0.15346878767013549805f}
    }
  },
  {
    {
      {-0.12478303909301757812f}
    },
    {
      {-0.20215678215026855469f}
    },
    {
      {0.00423920154571533203f}
    },
    {
      {-0.15741455554962158203f}
    },
    {
      {-0.18452233076095581055f}
    },
    {
      {0.15827265381813049316f}
    },
    {
      {-0.06051871180534362793f}
    },
    {
      {-0.04630547761917114258f}
    },
    {
      {0.24475818872451782227f}
    },
    {
      {-0.18729528784751892090f}
    },
    {
      {0.17043089866638183594f}
    },
    {
      {-0.19255363941192626953f}
    },
    {
      {0.17956280708312988281f}
    },
    {
      {0.00103116035461425781f}
    },
    {
      {0.17504706978797912598f}
    },
    {
      {-0.19031023979187011719f}
    }
  },
  {
    {
      {-0.00710356235504150391f}
    },
    {
      {-0.07483854889869689941f}
    },
    {
      {0.12045255303382873535f}
    },
    {
      {0.17617228627204895020f}
    },
    {
      {-0.19264230132102966309f}
    },
    {
      {0.14806526899337768555f}
    },
    {
      {-0.17452758550643920898f}
    },
    {
      {-0.21232849359512329102f}
    },
    {
      {0.09871008992195129395f}
    },
    {
      {-0.15442913770675659180f}
    },
    {
      {-0.01768293976783752441f}
    },
    {
      {0.21474909782409667969f}
    },
    {
      {0.11416697502136230469f}
    },
    {
      {0.07150027155876159668f}
    },
    {
      {-0.05655169486999511719f}
    },
    {
      {-0.19548407196998596191f}
    }
  },
  {
    {
      {-0.16651597619056701660f}
    },
    {
      {-0.03008568286895751953f}
    },
    {
      {0.24065372347831726074f}
    },
    {
      {-0.24618124961853027344f}
    },
    {
      {-0.10233181715011596680f}
    },
    {
      {0.20946559309959411621f}
    },
    {
      {-0.18934965133666992188f}
    },
    {
      {-0.11724528670310974121f}
    },
    {
      {-0.21780988574028015137f}
    },
    {
      {0.17483153939247131348f}
    },
    {
      {0.00784173607826232910f}
    },
    {
      {0.03342619538307189941f}
    },
    {
      {0.00189924240112304688f}
    },
    {
      {0.09414717555046081543f}
    },
    {
      {0.08880683779716491699f}
    },
    {
      {-0.17966789007186889648f}
    }
  },
  {
    {
      {0.14327168464660644531f}
    },
    {
      {-0.06065818667411804199f}
    },
    {
      {-0.24655917286872863770f}
    },
    {
      {0.08993020653724670410f}
    },
    {
      {0.00561839342117309570f}
    },
    {
      {-0.11937367916107177734f}
    },
    {
      {0.13513138890266418457f}
    },
    {
      {-0.09337022900581359863f}
    },
    {
      {-0.06135109066963195801f}
    },
    {
      {-0.21292176842689514160f}
    },
    {
      {-0.11443892121315002441f}
    },
    {
      {0.02512678503990173340f}
    },
    {
      {-0.23593774437904357910f}
    },
    {
      {-0.02217438817024230957f}
    },
    {
      {0.09394687414169311523f}
    },
    {
      {-0.20155188441276550293f}
    }
  },
  {
    {
      {0.09568047523498535156f}
    },
    {
      {0.12031364440917968750f}
    },
    {
      {-0.02300214767456054688f}
    },
    {
      {0.23897460103034973145f}
    },
    {
      {0.17312970757484436035f}
    },
    {
      {-0.16064015030860900879f}
    },
    {
      {0.16261652112007141113f}
    },
    {
      {-0.01376113295555114746f}
    },
    {
      {0.15258297324180603027f}
    },
    {
      {-0.17639428377151489258f}
    },
    {
      {0.16254416108131408691f}
    },
    {
      {0.06573185324668884277f}
    },
    {
      {0.06813049316406250000f}
    },
    {
      {-0.21261218190193176270f}
    },
    {
      {-0.12184616923332214355f}
    },
    {
      {-0.16611072421073913574f}
    }
  },
  {
    {
      {-0.14482054114341735840f}
    },
    {
      {0.22992414236068725586f}
    },
    {
      {0.23373329639434814453f}
    },
    {
      {-0.22228345274925231934f}
    },
    {
      {-0.07804560661315917969f}
    },
    {
      {-0.12236404418945312500f}
    },
    {
      {0.08696281909942626953f}
    },
    {
      {0.06437480449676513672f}
    },
    {
      {-0.14180022478103637695f}
    },
    {
      {-0.24872732162475585938f}
    },
    {
      {-0.03044146299362182617f}
    },
    {
      {0.10917398333549499512f}
    },
    {
      {0.20356497168540954590f}
    },
    {
      {-0.08307859301567077637f}
    },
    {
      {-0.01578459143638610840f}
    },
    {
      {0.06410163640975952148f}
    }
  }
};
static const float tensor_middle_conv1_bias[32] = 
{-0.19027253985404968262f, 0.19593143463134765625f, -0.11790975928306579590f, -0.22214999794960021973f, -0.07281711697578430176f, -0.12889525294303894043f, 0.02710369229316711426f, 0.00736773014068603516f, -0.01022991538047790527f, -0.23640632629394531250f, -0.13154560327529907227f, -0.17858591675758361816f, 0.02986854314804077148f, -0.11919751763343811035f, 0.23043343424797058105f, 0.09727221727371215820f, -0.23706179857254028320f, -0.02198439836502075195f, 0.23372882604598999023f, 0.06465590000152587891f, -0.23106744885444641113f, 0.09151622653007507324f, -0.07332846522331237793f, 0.08247822523117065430f, 0.13538569211959838867f, -0.14968395233154296875f, 0.08535498380661010742f, -0.14706483483314514160f, -0.02202725410461425781f, -0.00929024815559387207f, -0.02985277771949768066f, -0.15858021378517150879f};
static const float tensor_middle_dw_conv_weight[16][1][3][3] = 
{
  {
    {
      {0.15125811100006103516f, -0.24526771903038024902f, -0.28859001398086547852f},
      {-0.25234919786453247070f, -0.02360634133219718933f, -0.03836937993764877319f},
      {-0.14040839672088623047f, 0.10493489354848861694f, -0.03806722164154052734f}
    }
  },
  {
    {
      {-0.05589966103434562683f, -0.08818881213665008545f, -0.01950212381780147552f},
      {-0.20398449897766113281f, 0.26592576503753662109f, 0.16457919776439666748f},
      {-0.30378127098083496094f, -0.14138877391815185547f, 0.20581445097923278809f}
    }
  },
  {
    {
      {-0.06460416316986083984f, -0.27598667144775390625f, 0.12970015406608581543f},
      {0.01760260388255119324f, -0.20120918750762939453f, -0.14807507395744323730f},
      {-0.26470863819122314453f, -0.29680177569389343262f, -0.12958233058452606201f}
    }
  },
  {
    {
      {-0.18731813132762908936f, -0.04741883277893066406f, 0.01045469474047422409f},
      {0.08945922553539276123f, -0.28233277797698974609f, 0.00038015842437744141f},
      {0.08271678537130355835f, -0.12986811995506286621f, -0.06376644223928451538f}
    }
  },
  {
    {
      {0.29091984033584594727f, -0.28465235233306884766f, 0.04546980187296867371f},
      {-0.21546670794486999512f, 0.15397143363952636719f, -0.22741656005382537842f},
      {-0.16650685667991638184f, -0.22350907325744628906f, 0.09173083305358886719f}
    }
  },
  {
    {
      {0.02588756941258907318f, -0.00372699904255568981f, -0.29203242063522338867f},
      {-0.09559988975524902344f, -0.01681101322174072266f, 0.30077025294303894043f},
      {0.13731753826141357422f, 0.09647881984710693359f, 0.28935337066650390625f}
    }
  },
  {
    {
      {0.03414789959788322449f, 0.23911738395690917969f, 0.32888984680175781250f},
      {-0.22453944385051727295f, 0.01371916197240352631f, -0.21933853626251220703f},
      {0.27850306034088134766f, -0.31591463088989257812f, 0.06811972707509994507f}
    }
  },
  {
    {
      {-0.02058144472539424896f, 0.11776375770568847656f, -0.13460966944694519043f},
      {-0.22430543601512908936f, -0.31581068038940429688f, 0.07856547832489013672f},
      {0.21132843196392059326f, -0.01445623300969600677f, 0.15229992568492889404f}
    }
  },
  {
    {
      {-0.12782415747642517090f, -0.24322077631950378418f, -0.22921025753021240234f},
      {-0.32133901119232177734f, 0.04340171813964843750f, 0.26818665862083435059f},
      {-0.11286203563213348389f, 0.27529293298721313477f, -0.07542606443166732788f}
    }
  },
  {
    {
      {-0.30197584629058837891f, -0.31109532713890075684f, 0.15477582812309265137f},
      {0.05342594906687736511f, -0.15151202678680419922f, -0.21289288997650146484f},
      {-0.08238220214843750000f, -0.18807844817638397217f, -0.33286023139953613281f}
    }
  },
  {
    {
      {0.01326119899749755859f, -0.14921836555004119873f, -0.04855060577392578125f},
      {-0.09788446128368377686f, 0.25909793376922607422f, -0.29525578022003173828f},
      {0.16669926047325134277f, 0.10139890760183334351f, 0.19556045532226562500f}
    }
  },
  {
    {
      {0.21276085078716278076f, 0.14093804359436035156f, -0.04556580632925033569f},
      {0.31906890869140625000f, 0.18189188838005065918f, 0.09954806417226791382f},
      {0.30457803606986999512f, -0.17460207641124725342f, 0.19159209728240966797f}
    }
  },
  {
    {
      {-0.11057727038860321045f, 0.11430887877941131592f, 0.18499276041984558105f},
      {0.07885774224996566772f, -0.27089661359786987305f, -0.22876656055450439453f},
      {0.27122911810874938965f, -0.09492449462413787842f, -0.00115100550465285778f}
    }
  },
  {
    {
      {-0.17406110465526580811f, -0.00604943465441465378f, -0.29568517208099365234f},
      {0.12747192382812500000f, -0.27680027484893798828f, -0.19337229430675506592f},
      {-0.32002347707748413086f, 0.14270114898681640625f, 0.31934434175491333008f}
    }
  },
  {
    {
      {-0.04283968731760978699f, 0.31987494230270385742f, 0.02715408802032470703f},
      {0.18216864764690399170f, -0.06998252868652343750f, -0.03610591217875480652f},
      {0.19533967971801757812f, -0.18691281974315643311f, 0.06921204179525375366f}
    }
  },
  {
    {
      {0.31470626592636108398f, 0.02842509746551513672f, -0.02016838453710079193f},
      {-0.11435787379741668701f, 0.27820438146591186523f, -0.25553691387176513672f},
      {-0.30440485477447509766f, 0.01881492137908935547f, -0.19129908084869384766f}
    }
  }
};
static const float tensor_middle_dw_conv_bias[16] = 
{0.08042725175619125366f, -0.22119006514549255371f, 0.04697132110595703125f, 0.04970049858093261719f, -0.23947560787200927734f, -0.12202700227499008179f, 0.30284905433654785156f, -0.13961021602153778076f, -0.15625905990600585938f, 0.03255915641784667969f, 0.28301188349723815918f, -0.09683021157979965210f, -0.05582249164581298828f, 0.18414053320884704590f, -0.08283778280019760132f, 0.09724335372447967529f};
static const float tensor_middle_ca_fc_weight[16][16][1][1] = 
{
  {
    {
      {0.12967517971992492676f}
    },
    {
      {-0.13851940631866455078f}
    },
    {
      {0.10481521487236022949f}
    },
    {
      {-0.21568366885185241699f}
    },
    {
      {0.00047895312309265137f}
    },
    {
      {0.13989347219467163086f}
    },
    {
      {-0.18945693969726562500f}
    },
    {
      {-0.18292242288589477539f}
    },
    {
      {0.09393355250358581543f}
    },
    {
      {-0.20459559559822082520f}
    },
    {
      {-0.08429342508316040039f}
    },
    {
      {-0.02305877208709716797f}
    },
    {
      {-0.19508016109466552734f}
    },
    {
      {0.21493628621101379395f}
    },
    {
      {-0.22417467832565307617f}
    },
    {
      {0.20732918381690979004f}
    }
  },
  {
    {
      {0.05494493246078491211f}
    },
    {
      {-0.00702813267707824707f}
    },
    {
      {0.23111850023269653320f}
    },
    {
      {-0.08378869295120239258f}
    },
    {
      {-0.15276050567626953125f}
    },
    {
      {0.05213403701782226562f}
    },
    {
      {-0.14722350239753723145f}
    },
    {
      {-0.11027911305427551270f}
    },
    {
      {-0.11409485340118408203f}
    },
    {
      {-0.16957962512969970703f}
    },
    {
      {0.03208738565444946289f}
    },
    {
      {0.16850149631500244141f}
    },
    {
      {0.02160450816154479980f}
    },
    {
      {-0.14673256874084472656f}
    },
    {
      {-0.05765086412429809570f}
    },
    {
      {0.14653366804122924805f}
    }
  },
  {
    {
      {-0.02245697379112243652f}
    },
    {
      {0.16446191072463989258f}
    },
    {
      {-0.10847112536430358887f}
    },
    {
      {-0.02264654636383056641f}
    },
    {
      {0.17256173491477966309f}
    },
    {
      {0.11279022693634033203f}
    },
    {
      {-0.19841450452804565430f}
    },
    {
      {-0.10366705060005187988f}
    },
    {
      {-0.01341423392295837402f}
    },
    {
      {0.08966299891471862793f}
    },
    {
      {-0.14714857935905456543f}
    },
    {
      {-0.08435896039009094238f}
    },
    {
      {0.13824105262756347656f}
    },
    {
      {-0.08186784386634826660f}
    },
    {
      {0.06005176901817321777f}
    },
    {
      {-0.22756391763687133789f}
    }
  },
  {
    {
      {0.20670413970947265625f}
    },
    {
      {0.02874320745468139648f}
    },
    {
      {-0.19209149479866027832f}
    },
    {
      {0.14562898874282836914f}
    },
    {
      {-0.05939114093780517578f}
    },
    {
      {0.21146878600120544434f}
    },
    {
      {0.22330105304718017578f}
    },
    {
      {-0.20552909374237060547f}
    },
    {
      {0.11123749613761901855f}
    },
    {
      {0.07167398929595947266f}
    },
    {
      {0.21944043040275573730f}
    },
    {
      {-0.13442772626876831055f}
    },
    {
      {0.10702106356620788574f}
    },
    {
      {0.13368320465087890625f}
    },
    {
      {-0.00700673460960388184f}
    },
    {
      {0.11276167631149291992f}
    }
  },
  {
    {
      {-0.19622516632080078125f}
    },
    {
      {0.16181531548500061035f}
    },
    {
      {-0.16853210330009460449f}
    },
    {
      {0.08867853879928588867f}
    },
    {
      {-0.18627405166625976562f}
    },
    {
      {-0.04016172885894775391f}
    },
    {
      {-0.15213415026664733887f}
    },
    {
      {-0.13089218735694885254f}
    },
    {
      {0.22075492143630981445f}
    },
    {
      {-0.02675026655197143555f}
    },
    {
      {-0.15998280048370361328f}
    },
    {
      {-0.07984042167663574219f}
    },
    {
      {0.06591168045997619629f}
    },
    {
      {0.01253196597099304199f}
    },
    {
      {-0.06958866119384765625f}
    },
    {
      {-0.17908638715744018555f}
    }
  },
  {
    {
      {0.10873714089393615723f}
    },
    {
      {-0.23885616660118103027f}
    },
    {
      {-0.20235210657119750977f}
    },
    {
      {-0.04972225427627563477f}
    },
    {
      {-0.05293625593185424805f}
    },
    {
      {-0.14738768339157104492f}
    },
    {
      {-0.17915189266204833984f}
    },
    {
      {-0.09689083695411682129f}
    },
    {
      {-0.03046742081642150879f}
    },
    {
      {0.13546112179756164551f}
    },
    {
      {-0.05443346500396728516f}
    },
    {
      {-0.07787546515464782715f}
    },
    {
      {-0.10648575425148010254f}
    },
    {
      {0.17048048973083496094f}
    },
    {
      {-0.24141892790794372559f}
    },
    {
      {-0.14185529947280883789f}
    }
  },
  {
    {
      {0.00064301490783691406f}
    },
    {
      {0.03379744291305541992f}
    },
    {
      {0.00835737586021423340f}
    },
    {
      {-0.20628967881202697754f}
    },
    {
      {0.10223361849784851074f}
    },
    {
      {-0.22561126947402954102f}
    },
    {
      {0.03486523032188415527f}
    },
    {
      {0.04510471224784851074f}
    },
    {
      {-0.23380994796752929688f}
    },
    {
      {-0.04815852642059326172f}
    },
    {
      {0.05887666344642639160f}
    },
    {
      {-0.09916773438453674316f}
    },
    {
      {-0.23816919326782226562f}
    },
    {
      {-0.24130612611770629883f}
    },
    {
      {0.05918946862220764160f}
    },
    {
      {-0.16323480010032653809f}
    }
  },
  {
    {
      {-0.22568482160568237305f}
    },
    {
      {-0.17041826248168945312f}
    },
    {
      {-0.08379498124122619629f}
    },
    {
      {0.12770754098892211914f}
    },
    {
      {0.08689248561859130859f}
    },
    {
      {0.17946395277976989746f}
    },
    {
      {-0.11303389072418212891f}
    },
    {
      {-0.08331564068794250488f}
    },
    {
      {0.01590973138809204102f}
    },
    {
      {-0.14912813901901245117f}
    },
    {
      {-0.10307279229164123535f}
    },
    {
      {0.15096172690391540527f}
    },
    {
      {0.05058652162551879883f}
    },
    {
      {0.03320917487144470215f}
    },
    {
      {-0.07108289003372192383f}
    },
    {
      {-0.08361148834228515625f}
    }
  },
  {
    {
      {0.11471632122993469238f}
    },
    {
      {-0.13153135776519775391f}
    },
    {
      {-0.22638005018234252930f}
    },
    {
      {0.14409232139587402344f}
    },
    {
      {0.06890630722045898438f}
    },
    {
      {0.20433554053306579590f}
    },
    {
      {-0.04296246170997619629f}
    },
    {
      {0.06556892395019531250f}
    },
    {
      {0.13172701001167297363f}
    },
    {
      {-0.23406976461410522461f}
    },
    {
      {-0.09668624401092529297f}
    },
    {
      {0.20167198777198791504f}
    },
    {
      {-0.20589789748191833496f}
    },
    {
      {0.10710537433624267578f}
    },
    {
      {0.03363400697708129883f}
    },
    {
      {0.20289331674575805664f}
    }
  },
  {
    {
      {-0.15187826752662658691f}
    },
    {
      {-0.10495430231094360352f}
    },
    {
      {0.20577415823936462402f}
    },
    {
      {0.01212838292121887207f}
    },
    {
      {-0.23209178447723388672f}
    },
    {
      {0.01750496029853820801f}
    },
    {
      {-0.01766371726989746094f}
    },
    {
      {-0.14961510896682739258f}
    },
    {
      {0.07333517074584960938f}
    },
    {
      {0.00274217128753662109f}
    },
    {
      {-0.01315951347351074219f}
    },
    {
      {-0.19362244009971618652f}
    },
    {
      {-0.10715818405151367188f}
    },
    {
      {0.18987074494361877441f}
    },
    {
      {0.18372219800949096680f}
    },
    {
      {0.20591765642166137695f}
    }
  },
  {
    {
      {-0.19005450606346130371f}
    },
    {
      {0.04385223984718322754f}
    },
    {
      {0.15662503242492675781f}
    },
    {
      {-0.04078236222267150879f}
    },
    {
      {-0.09244397282600402832f}
    },
    {
      {-0.08864587545394897461f}
    },
    {
      {0.12689930200576782227f}
    },
    {
      {-0.24815812706947326660f}
    },
    {
      {-0.02600365877151489258f}
    },
    {
      {0.03964537382125854492f}
    },
    {
      {-0.05367252230644226074f}
    },
    {
      {0.13712736964225769043f}
    },
    {
      {-0.14393001794815063477f}
    },
    {
      {0.08633643388748168945f}
    },
    {
      {-0.15246772766113281250f}
    },
    {
      {-0.19291204214096069336f}
    }
  },
  {
    {
      {0.15254586935043334961f}
    },
    {
      {-0.04303169250488281250f}
    },
    {
      {0.15529909729957580566f}
    },
    {
      {-0.15550035238265991211f}
    },
    {
      {0.08202230930328369141f}
    },
    {
      {0.05596062541007995605f}
    },
    {
      {-0.16162180900573730469f}
    },
    {
      {0.10225200653076171875f}
    },
    {
      {-0.21490377187728881836f}
    },
    {
      {-0.18046954274177551270f}
    },
    {
      {-0.18134298920631408691f}
    },
    {
      {-0.11833405494689941406f}
    },
    {
      {0.21938848495483398438f}
    },
    {
      {-0.18471467494964599609f}
    },
    {
      {0.22362846136093139648f}
    },
    {
      {0.14386582374572753906f}
    }
  },
  {
    {
      {-0.02099573612213134766f}
    },
    {
      {-0.21819812059402465820f}
    },
    {
      {-0.18862101435661315918f}
    },
    {
      {-0.11244985461235046387f}
    },
    {
      {-0.21283361315727233887f}
    },
    {
      {0.16261288523674011230f}
    },
    {
      {-0.12384065985679626465f}
    },
    {
      {-0.15798485279083251953f}
    },
    {
      {-0.00729283690452575684f}
    },
    {
      {-0.09037709236145019531f}
    },
    {
      {-0.08700343966484069824f}
    },
    {
      {-0.18688276410102844238f}
    },
    {
      {-0.24735903739929199219f}
    },
    {
      {-0.04094991087913513184f}
    },
    {
      {0.18269509077072143555f}
    },
    {
      {0.21006929874420166016f}
    }
  },
  {
    {
      {-0.14584964513778686523f}
    },
    {
      {0.13367927074432373047f}
    },
    {
      {0.02289366722106933594f}
    },
    {
      {0.15061178803443908691f}
    },
    {
      {-0.02319461107254028320f}
    },
    {
      {0.13640555739402770996f}
    },
    {
      {0.08455172181129455566f}
    },
    {
      {-0.02378588914871215820f}
    },
    {
      {0.14763322472572326660f}
    },
    {
      {-0.10181328654289245605f}
    },
    {
      {0.23775485157966613770f}
    },
    {
      {-0.03754153847694396973f}
    },
    {
      {-0.01460391283035278320f}
    },
    {
      {0.16507828235626220703f}
    },
    {
      {-0.04965978860855102539f}
    },
    {
      {0.05470538139343261719f}
    }
  },
  {
    {
      {0.13971585035324096680f}
    },
    {
      {0.06532034277915954590f}
    },
    {
      {-0.04528203606605529785f}
    },
    {
      {-0.01241400837898254395f}
    },
    {
      {-0.12005841732025146484f}
    },
    {
      {0.13323929905891418457f}
    },
    {
      {0.24126663804054260254f}
    },
    {
      {-0.07617601752281188965f}
    },
    {
      {0.14356070756912231445f}
    },
    {
      {0.04289674758911132812f}
    },
    {
      {-0.09237492084503173828f}
    },
    {
      {0.23692259192466735840f}
    },
    {
      {-0.12529364228248596191f}
    },
    {
      {-0.09848794341087341309f}
    },
    {
      {-0.20372602343559265137f}
    },
    {
      {0.10011374950408935547f}
    }
  },
  {
    {
      {-0.18965211510658264160f}
    },
    {
      {0.08605965971946716309f}
    },
    {
      {0.13376367092132568359f}
    },
    {
      {0.13007938861846923828f}
    },
    {
      {0.20941701531410217285f}
    },
    {
      {0.01594275236129760742f}
    },
    {
      {-0.16113945841789245605f}
    },
    {
      {0.12507271766662597656f}
    },
    {
      {0.05012568831443786621f}
    },
    {
      {-0.16502383351325988770f}
    },
    {
      {0.21658816933631896973f}
    },
    {
      {-0.15483394265174865723f}
    },
    {
      {-0.06000977754592895508f}
    },
    {
      {-0.03893515467643737793f}
    },
    {
      {-0.10662281513214111328f}
    },
    {
      {-0.01183897256851196289f}
    }
  }
};
static const float tensor_middle_ca_fc_bias[16] = 
{0.01254817843437194824f, -0.15049827098846435547f, 0.16961443424224853516f, 0.10552945733070373535f, 0.12157371640205383301f, -0.16388428211212158203f, -0.16449072957038879395f, 0.05343052744865417480f, -0.11865273118019104004f, -0.12554284930229187012f, -0.15582734346389770508f, 0.04785704612731933594f, 0.16345384716987609863f, 0.03062209486961364746f, 0.16859447956085205078f, -0.00303748250007629395f};
static const float tensor_middle_conv2_weight[16][16][1][1] = 
{
  {
    {
      {-0.12790426611900329590f}
    },
    {
      {-0.21751400828361511230f}
    },
    {
      {-0.03512001037597656250f}
    },
    {
      {-0.08612126111984252930f}
    },
    {
      {0.16746193170547485352f}
    },
    {
      {0.19181296229362487793f}
    },
    {
      {-0.20288026332855224609f}
    },
    {
      {-0.02829754352569580078f}
    },
    {
      {0.08331683278083801270f}
    },
    {
      {0.06045210361480712891f}
    },
    {
      {-0.08636590838432312012f}
    },
    {
      {0.11835303902626037598f}
    },
    {
      {-0.13680601119995117188f}
    },
    {
      {-0.13865312933921813965f}
    },
    {
      {-0.16693454980850219727f}
    },
    {
      {0.18700221180915832520f}
    }
  },
  {
    {
      {0.20979568362236022949f}
    },
    {
      {0.13282439112663269043f}
    },
    {
      {0.02966529130935668945f}
    },
    {
      {-0.13071262836456298828f}
    },
    {
      {-0.05863195657730102539f}
    },
    {
      {-0.01280075311660766602f}
    },
    {
      {-0.13085401058197021484f}
    },
    {
      {0.02002838253974914551f}
    },
    {
      {0.00737118721008300781f}
    },
    {
      {-0.16918122768402099609f}
    },
    {
      {-0.00926706194877624512f}
    },
    {
      {-0.11701521277427673340f}
    },
    {
      {-0.11260616779327392578f}
    },
    {
      {0.03138408064842224121f}
    },
    {
      {0.19325414299964904785f}
    },
    {
      {0.18463164567947387695f}
    }
  },
  {
    {
      {-0.06277510523796081543f}
    },
    {
      {0.08612591028213500977f}
    },
    {
      {0.09624159336090087891f}
    },
    {
      {0.00546166300773620605f}
    },
    {
      {-0.20052900910377502441f}
    },
    {
      {0.23451209068298339844f}
    },
    {
      {-0.05212232470512390137f}
    },
    {
      {0.16616904735565185547f}
    },
    {
      {0.11774376034736633301f}
    },
    {
      {0.11724853515625000000f}
    },
    {
      {-0.05977931618690490723f}
    },
    {
      {-0.15114587545394897461f}
    },
    {
      {-0.03329727053642272949f}
    },
    {
      {0.00773119926452636719f}
    },
    {
      {-0.17491063475608825684f}
    },
    {
      {-0.07504329085350036621f}
    }
  },
  {
    {
      {-0.19148990511894226074f}
    },
    {
      {-0.18049171566963195801f}
    },
    {
      {-0.01515200734138488770f}
    },
    {
      {-0.00970020890235900879f}
    },
    {
      {-0.03914526104927062988f}
    },
    {
      {0.08073580265045166016f}
    },
    {
      {0.04635164141654968262f}
    },
    {
      {-0.24041101336479187012f}
    },
    {
      {-0.07269623875617980957f}
    },
    {
      {0.17622810602188110352f}
    },
    {
      {0.13501867651939392090f}
    },
    {
      {-0.16353866457939147949f}
    },
    {
      {-0.00341510772705078125f}
    },
    {
      {0.01275223493576049805f}
    },
    {
      {-0.18074554204940795898f}
    },
    {
      {0.08684760332107543945f}
    }
  },
  {
    {
      {0.23197758197784423828f}
    },
    {
      {0.13240650296211242676f}
    },
    {
      {-0.11162626743316650391f}
    },
    {
      {-0.02243265509605407715f}
    },
    {
      {-0.11367160081863403320f}
    },
    {
      {-0.04615685343742370605f}
    },
    {
      {-0.01591801643371582031f}
    },
    {
      {-0.08669599890708923340f}
    },
    {
      {-0.06840050220489501953f}
    },
    {
      {-0.20508104562759399414f}
    },
    {
      {-0.19194817543029785156f}
    },
    {
      {-0.21980223059654235840f}
    },
    {
      {-0.08602029085159301758f}
    },
    {
      {0.20643597841262817383f}
    },
    {
      {-0.19040057063102722168f}
    },
    {
      {-0.11667641997337341309f}
    }
  },
  {
    {
      {0.07624450325965881348f}
    },
    {
      {-0.09626749157905578613f}
    },
    {
      {0.21316304802894592285f}
    },
    {
      {0.17632472515106201172f}
    },
    {
      {-0.00076892971992492676f}
    },
    {
      {-0.06011593341827392578f}
    },
    {
      {-0.22345766425132751465f}
    },
    {
      {-0.08440107107162475586f}
    },
    {
      {-0.19520723819732666016f}
    },
    {
      {0.05493739247322082520f}
    },
    {
      {-0.14224946498870849609f}
    },
    {
      {-0.03760242462158203125f}
    },
    {
      {-0.13388022780418395996f}
    },
    {
      {0.21169462800025939941f}
    },
    {
      {0.22600680589675903320f}
    },
    {
      {-0.19118529558181762695f}
    }
  },
  {
    {
      {0.04400861263275146484f}
    },
    {
      {-0.07200798392295837402f}
    },
    {
      {-0.05228501558303833008f}
    },
    {
      {0.11243239045143127441f}
    },
    {
      {-0.13622716069221496582f}
    },
    {
      {0.08618664741516113281f}
    },
    {
      {-0.22913610935211181641f}
    },
    {
      {0.02787861227989196777f}
    },
    {
      {-0.18340891599655151367f}
    },
    {
      {-0.22748813033103942871f}
    },
    {
      {-0.07908478379249572754f}
    },
    {
      {0.19480922818183898926f}
    },
    {
      {0.02239987254142761230f}
    },
    {
      {-0.24815821647644042969f}
    },
    {
      {0.23302635550498962402f}
    },
    {
      {-0.04992011189460754395f}
    }
  },
  {
    {
      {0.20431083440780639648f}
    },
    {
      {-0.16325867176055908203f}
    },
    {
      {-0.08420220017433166504f}
    },
    {
      {0.01613628864288330078f}
    },
    {
      {0.08562067151069641113f}
    },
    {
      {-0.20490503311157226562f}
    },
    {
      {0.00572231411933898926f}
    },
    {
      {0.08583229780197143555f}
    },
    {
      {0.08829984068870544434f}
    },
    {
      {-0.21185570955276489258f}
    },
    {
      {-0.04070675373077392578f}
    },
    {
      {0.08713665604591369629f}
    },
    {
      {-0.02701979875564575195f}
    },
    {
      {0.17868131399154663086f}
    },
    {
      {0.00518357753753662109f}
    },
    {
      {0.13055348396301269531f}
    }
  },
  {
    {
      {-0.14892977476119995117f}
    },
    {
      {-0.19776880741119384766f}
    },
    {
      {-0.15433648228645324707f}
    },
    {
      {-0.10994946956634521484f}
    },
    {
      {0.18528103828430175781f}
    },
    {
      {0.07620051503181457520f}
    },
    {
      {-0.00453898310661315918f}
    },
    {
      {0.19361862540245056152f}
    },
    {
      {-0.06139189004898071289f}
    },
    {
      {-0.04965597391128540039f}
    },
    {
      {0.01440131664276123047f}
    },
    {
      {0.19744402170181274414f}
    },
    {
      {-0.11233916878700256348f}
    },
    {
      {-0.16723394393920898438f}
    },
    {
      {0.01186394691467285156f}
    },
    {
      {0.21211990714073181152f}
    }
  },
  {
    {
      {-0.22595098614692687988f}
    },
    {
      {0.10455664992332458496f}
    },
    {
      {0.08595249056816101074f}
    },
    {
      {0.02274337410926818848f}
    },
    {
      {-0.23219916224479675293f}
    },
    {
      {-0.15179643034934997559f}
    },
    {
      {-0.21587449312210083008f}
    },
    {
      {-0.07147505879402160645f}
    },
    {
      {-0.01728349924087524414f}
    },
    {
      {0.05028963088989257812f}
    },
    {
      {-0.20047864317893981934f}
    },
    {
      {0.10088679194450378418f}
    },
    {
      {0.17657315731048583984f}
    },
    {
      {-0.04559412598609924316f}
    },
    {
      {0.00285375118255615234f}
    },
    {
      {-0.04030713438987731934f}
    }
  },
  {
    {
      {-0.13549292087554931641f}
    },
    {
      {-0.09234720468521118164f}
    },
    {
      {-0.10428667068481445312f}
    },
    {
      {0.07896438241004943848f}
    },
    {
      {-0.20606926083564758301f}
    },
    {
      {-0.21367257833480834961f}
    },
    {
      {-0.24302852153778076172f}
    },
    {
      {-0.17723849415779113770f}
    },
    {
      {-0.02878692746162414551f}
    },
    {
      {0.06413620710372924805f}
    },
    {
      {-0.24613574147224426270f}
    },
    {
      {0.01394844055175781250f}
    },
    {
      {0.10346660017967224121f}
    },
    {
      {0.19669431447982788086f}
    },
    {
      {0.23256582021713256836f}
    },
    {
      {-0.12698709964752197266f}
    }
  },
  {
    {
      {0.09613516926765441895f}
    },
    {
